FANN_FLO_2.1
num_layers=4
learning_rate=0.700000
connection_rate=1.000000
network_type=0
learning_momentum=0.000000
training_algorithm=2
train_error_function=1
train_stop_function=0
cascade_output_change_fraction=0.010000
quickprop_decay=-0.000100
quickprop_mu=1.750000
rprop_increase_factor=1.200000
rprop_decrease_factor=0.500000
rprop_delta_min=0.000000
rprop_delta_max=50.000000
rprop_delta_zero=0.100000
cascade_output_stagnation_epochs=12
cascade_candidate_change_fraction=0.010000
cascade_candidate_stagnation_epochs=12
cascade_max_out_epochs=150
cascade_min_out_epochs=50
cascade_max_cand_epochs=150
cascade_min_cand_epochs=50
cascade_num_candidate_groups=2
bit_fail_limit=3.49999994039535520000e-001
cascade_candidate_limit=1.00000000000000000000e+003
cascade_weight_multiplier=4.00000005960464480000e-001
cascade_activation_functions_count=10
cascade_activation_functions=3 5 7 8 10 11 14 15 16 17 
cascade_activation_steepnesses_count=4
cascade_activation_steepnesses=2.50000000000000000000e-001 5.00000000000000000000e-001 7.50000000000000000000e-001 1.00000000000000000000e+000 
layer_sizes=7 18 9 7 
scale_included=0
neurons (num_inputs, activation_function, activation_steepness)=(0, 0, 0.00000000000000000000e+000) (0, 0, 0.00000000000000000000e+000) (0, 0, 0.00000000000000000000e+000) (0, 0, 0.00000000000000000000e+000) (0, 0, 0.00000000000000000000e+000) (0, 0, 0.00000000000000000000e+000) (0, 0, 0.00000000000000000000e+000) (7, 5, 9.99999977648258210000e-003) (7, 5, 9.99999977648258210000e-003) (7, 5, 9.99999977648258210000e-003) (7, 5, 9.99999977648258210000e-003) (7, 5, 9.99999977648258210000e-003) (7, 5, 9.99999977648258210000e-003) (7, 5, 9.99999977648258210000e-003) (7, 5, 9.99999977648258210000e-003) (7, 5, 9.99999977648258210000e-003) (7, 5, 9.99999977648258210000e-003) (7, 5, 9.99999977648258210000e-003) (7, 5, 9.99999977648258210000e-003) (7, 5, 9.99999977648258210000e-003) (7, 5, 9.99999977648258210000e-003) (7, 5, 9.99999977648258210000e-003) (7, 5, 9.99999977648258210000e-003) (7, 5, 9.99999977648258210000e-003) (0, 0, 0.00000000000000000000e+000) (18, 5, 9.99999977648258210000e-003) (18, 5, 9.99999977648258210000e-003) (18, 5, 9.99999977648258210000e-003) (18, 5, 9.99999977648258210000e-003) (18, 5, 9.99999977648258210000e-003) (18, 5, 9.99999977648258210000e-003) (18, 5, 9.99999977648258210000e-003) (18, 5, 9.99999977648258210000e-003) (0, 0, 0.00000000000000000000e+000) (9, 5, 9.99999977648258210000e-003) (9, 5, 9.99999977648258210000e-003) (9, 5, 9.99999977648258210000e-003) (9, 5, 9.99999977648258210000e-003) (9, 5, 9.99999977648258210000e-003) (9, 5, 9.99999977648258210000e-003) (0, 0, 0.00000000000000000000e+000) 
connections (connected_to_neuron, weight)=(0, 6.53533887863159180000e+000) (1, 1.16908864974975590000e+001) (2, 1.05458936691284180000e+001) (3, 1.97188167572021480000e+001) (4, -3.58638763427734380000e+001) (5, 2.29163093566894530000e+001) (6, 3.33976125717163090000e+000) (0, -5.73977241516113280000e+001) (1, 1.03104772567749020000e+001) (2, -2.75059962272644040000e+000) (3, 4.56002521514892580000e+000) (4, -5.70207548141479490000e+000) (5, 1.12932682037353520000e+000) (6, -2.31548976898193360000e+000) (0, -1.57281720638275150000e+000) (1, 8.44321060180664060000e+000) (2, 7.92342376708984370000e+000) (3, 1.10064153671264650000e+001) (4, 9.35708045959472660000e+000) (5, 8.50920009613037110000e+000) (6, -3.43968868255615230000e-001) (0, 5.08130264282226560000e+001) (1, 1.19030246734619140000e+001) (2, -8.35006237030029300000e+000) (3, 9.63917922973632810000e+000) (4, 6.13242149353027340000e+000) (5, -3.81446151733398440000e+001) (6, -2.28858623504638670000e+001) (0, 2.04615516662597660000e+001) (1, 7.40839767456054690000e+000) (2, 1.50692110061645510000e+001) (3, 2.99150447845458980000e+001) (4, -1.12814741134643550000e+001) (5, 7.40796737670898440000e+001) (6, 7.18824005126953130000e+000) (0, -4.87733726501464840000e+001) (1, -2.86876511573791500000e+000) (2, 9.46994400024414060000e+000) (3, 1.10425243377685550000e+001) (4, 9.14620590209960940000e+000) (5, 9.78143501281738280000e+000) (6, 2.31090717315673830000e+001) (0, 3.27224151611328120000e+002) (1, 6.13259735107421880000e+001) (2, 1.71230545043945310000e+002) (3, 8.44082565307617190000e+001) (4, -9.48511981964111330000e+000) (5, -2.56143402099609370000e+002) (6, -1.31632751464843750000e+002) (0, -2.78197616338729860000e-001) (1, 4.82802808284759520000e-001) (2, -1.11216287612915040000e+001) (3, 1.89792270660400390000e+001) (4, 4.71402454376220700000e+000) (5, 1.59594078063964840000e+001) (6, 7.43655145168304440000e-001) (0, 1.02465572357177730000e+001) (1, 2.32166099548339840000e+000) (2, -9.79950332641601560000e+000) (3, 2.19256553649902340000e+001) (4, -9.98563575744628910000e+000) (5, 1.90537223815917970000e+001) (6, 7.94325232505798340000e-001) (0, -4.57249593734741210000e+000) (1, 2.42370176315307620000e+000) (2, 2.73575611114501950000e+001) (3, 3.32654113769531250000e+001) (4, -2.46926116943359370000e+000) (5, 2.78027820587158200000e+001) (6, 1.92043912410736080000e+000) (0, 3.83111991882324220000e+001) (1, 2.20685024261474610000e+001) (2, 1.84515357017517090000e+000) (3, -1.28688259124755860000e+001) (4, 1.70752353668212890000e+001) (5, -3.77887611389160160000e+001) (6, -4.94607686996459960000e-002) (0, -3.28477401733398440000e+001) (1, 8.11942386627197270000e+000) (2, 1.14543180465698240000e+001) (3, 8.96253204345703120000e+000) (4, 2.52595376968383790000e+000) (5, 3.54686260223388670000e+000) (6, 2.34296798706054690000e+001) (0, -5.89481811523437500000e+001) (1, 3.47393345832824710000e+000) (2, 6.82724380493164060000e+000) (3, 1.29899940490722660000e+001) (4, 1.58376598358154300000e+001) (5, -9.49356651306152340000e+000) (6, 1.95780372619628910000e+001) (0, 1.08963775634765630000e+001) (1, 5.26641798019409180000e+000) (2, 1.28873834609985350000e+001) (3, 1.86618175506591800000e+001) (4, -4.18548393249511720000e+001) (5, 2.79446334838867190000e+001) (6, 1.28757023811340330000e+000) (0, 3.99016880989074710000e+000) (1, -5.86719055175781250000e+001) (2, 1.13358392715454100000e+001) (3, 8.76746273040771480000e+000) (4, 1.74783265590667720000e+000) (5, 7.18357896804809570000e+000) (6, 2.08990898132324220000e+001) (0, 2.20604438781738280000e+001) (1, 6.51781845092773440000e+001) (2, -1.83645069599151610000e+000) (3, -8.31338405609130860000e+000) (4, -1.92912845611572270000e+001) (5, 7.26891803741455080000e+000) (6, -7.33274688720703120000e+001) (0, -1.15485877990722660000e+001) (1, 8.13519191741943360000e+000) (2, -1.26088571548461910000e+001) (3, -1.69618759155273440000e+001) (4, -3.69149131774902340000e+001) (5, 2.20331501960754390000e+000) (6, 2.23435554504394530000e+001) (7, 2.29567584991455080000e+001) (8, -1.22528238296508790000e+001) (9, 1.29505249023437500000e+002) (10, 4.23189430236816410000e+001) (11, 6.60508956909179690000e+001) (12, 1.86466110229492190000e+002) (13, -6.76124429702758790000e+000) (14, 5.50279083251953130000e+001) (15, -4.66760292053222660000e+001) (16, -1.65871078491210940000e+002) (17, 5.09024095535278320000e+000) (18, 2.63388793945312500000e+002) (19, 4.97404365539550780000e+001) (20, 1.06245475769042970000e+002) (21, -7.56617202758789060000e+001) (22, 1.89629837036132810000e+002) (23, 1.17214134216308590000e+002) (24, 4.19334182739257810000e+001) (7, 6.82196092605590820000e+000) (8, 4.36206102371215820000e+000) (9, 7.44197511672973630000e+000) (10, 8.54862117767333980000e+000) (11, 6.88916254043579100000e+000) (12, 7.20191421508789060000e+001) (13, 1.27351808547973630000e+001) (14, 2.34376850128173830000e+001) (15, 1.59479627609252930000e+001) (16, -9.49081954956054690000e+001) (17, 1.06420269012451170000e+001) (18, -1.22196712493896480000e+001) (19, 9.29153060913085940000e+000) (20, 6.28913927078247070000e+000) (21, 9.52803878784179690000e+001) (22, -1.86206130981445310000e+001) (23, -1.03857421875000000000e+001) (24, -4.93249893188476560000e-001) (7, -1.49402415752410890000e+000) (8, 6.35165357589721680000e+000) (9, -7.14193878173828130000e+001) (10, -4.22334625244140620000e+002) (11, -1.18805145263671880000e+002) (12, 3.97470550537109370000e+002) (13, 2.29736373901367190000e+002) (14, 1.89388942718505860000e+001) (15, -3.77289962768554690000e+001) (16, -1.37643218994140620000e+002) (17, -1.79187450408935550000e+001) (18, 2.83473072052001950000e+001) (19, 1.04862335205078120000e+002) (20, -3.05847587585449220000e+001) (21, 1.49937393188476560000e+002) (22, -4.43224731445312500000e+002) (23, 3.28064483642578130000e+002) (24, 8.96366214752197270000e+000) (7, 5.56535301208496090000e+001) (8, -6.60311889648437500000e+001) (9, 4.87586708068847660000e+001) (10, 7.42423858642578130000e+001) (11, 1.51997385025024410000e+001) (12, -1.01067056655883790000e+001) (13, -9.40631561279296880000e+001) (14, 2.03859424591064450000e+001) (15, 3.06851196289062500000e+001) (16, 4.33887672424316410000e+001) (17, 1.51727035522460940000e+002) (18, 6.78702926635742190000e+000) (19, -9.75272369384765620000e+001) (20, 5.67420806884765630000e+001) (21, -1.60257186889648440000e+001) (22, 1.66600402832031250000e+002) (23, -3.46448631286621090000e+001) (24, 2.06329479217529300000e+001) (7, 2.61485061645507810000e+001) (8, -6.98516845703125000000e+000) (9, 2.70717811584472660000e+001) (10, 1.02171258926391600000e+001) (11, -6.35977029800415040000e+000) (12, 6.42209529876708980000e+000) (13, -5.77049350738525390000e+000) (14, 2.65949420928955080000e+001) (15, 1.86204643249511720000e+001) (16, -5.04224586486816410000e+000) (17, 7.43422126770019530000e+000) (18, -1.28545808792114260000e+001) (19, 1.56778898239135740000e+001) (20, 1.86238975524902340000e+001) (21, -2.29597110748291020000e+001) (22, 9.31302261352539060000e+000) (23, -1.77105808258056640000e+001) (24, -4.98194313049316410000e+000) (7, 5.02458477020263670000e+000) (8, 1.10301559448242190000e+002) (9, 1.40485763549804690000e+001) (10, -3.11566791534423830000e+001) (11, 8.99203491210937500000e+000) (12, 6.75866928100585940000e+001) (13, 4.46815338134765630000e+001) (14, 9.79942512512207030000e+000) (15, 5.40101003646850590000e+000) (16, -2.15659675598144530000e+001) (17, 7.17702245712280270000e+000) (18, -7.19471871852874760000e-001) (19, 5.22567710876464840000e+001) (20, 4.40941858291625980000e+000) (21, -1.78009247779846190000e+000) (22, 3.66703605651855470000e+001) (23, 1.51630821228027340000e+001) (24, 2.60909819602966310000e+000) (7, 6.06190681457519530000e+000) (8, 4.98336105346679690000e+001) (9, 5.33150444030761720000e+001) (10, 4.17819404602050780000e+000) (11, -4.61928291320800780000e+001) (12, -9.70272216796875000000e+001) (13, 3.95149850845336910000e+000) (14, 4.45374870300292970000e+001) (15, 1.82303237915039060000e+001) (16, 1.05530746459960940000e+002) (17, -4.62964248657226560000e+000) (18, 1.89788665771484370000e+001) (19, 6.20062561035156250000e+002) (20, -5.86970062255859380000e+001) (21, -4.62049774169921870000e+002) (22, 1.50000000000000000000e+003) (23, -3.92266845703125000000e+002) (24, -3.94926810264587400000e+000) (7, 4.72290849685668950000e+000) (8, -2.74037408828735350000e+000) (9, -3.08951139450073240000e+000) (10, 1.37697210311889650000e+001) (11, -9.33064556121826170000e+000) (12, 7.51045942306518550000e+000) (13, 5.32269001007080080000e+000) (14, 8.05605220794677730000e+000) (15, 1.48832750320434570000e+001) (16, 5.30310211181640630000e+001) (17, 2.82455596923828120000e+001) (18, -3.58204536437988280000e+001) (19, 1.38675354003906250000e+002) (20, 4.59313678741455080000e+000) (21, 3.60205879211425780000e+001) (22, 1.78454620361328120000e+002) (23, 4.34635124206542970000e+001) (24, 1.39103822708129880000e+001) (25, -4.82667427062988280000e+001) (26, 1.50000000000000000000e+003) (27, -2.51395950317382810000e+002) (28, 9.46904052734375000000e+002) (29, -1.50000000000000000000e+003) (30, 1.45885388183593750000e+003) (31, 3.64688014984130860000e+000) (32, -5.96927124023437500000e+002) (33, 3.82431869506835940000e+001) (25, -1.51690435409545900000e+001) (26, 1.63907424926757810000e+002) (27, 6.53982830047607420000e+000) (28, -3.60027351379394530000e+001) (29, 4.08272666931152340000e+001) (30, -1.69641784667968750000e+002) (31, -2.12461929321289060000e+002) (32, 5.17097106933593750000e+002) (33, 1.53533906936645510000e+001) (25, 5.05286097526550290000e-001) (26, 2.02481338500976560000e+002) (27, -6.89069211483001710000e-001) (28, -2.04190444946289060000e+000) (29, 5.10614471435546870000e+002) (30, 7.39612340927124020000e+000) (31, -1.31828260421752930000e+000) (32, 3.40056848526000980000e+000) (33, 1.50836668014526370000e+001) (25, 4.42805916070938110000e-001) (26, 2.01639801025390620000e+002) (27, -7.11812913417816160000e-001) (28, -2.14392662048339840000e+000) (29, 5.09767181396484380000e+002) (30, 7.58028364181518550000e+000) (31, -1.28364884853363040000e+000) (32, 3.09516215324401860000e+000) (33, 1.51427392959594730000e+001) (25, 1.81909963488578800000e-001) (26, 1.92183975219726560000e+002) (27, -1.02301609516143800000e+000) (28, -1.95307147502899170000e+000) (29, 4.88644439697265620000e+002) (30, 9.03039550781250000000e+000) (31, -1.25018572807312010000e+000) (32, 1.14241647720336910000e+000) (33, 1.48399305343627930000e+001) (25, 8.64117264747619630000e-001) (26, 2.12605926513671870000e+002) (27, -3.75037848949432370000e-001) (28, -2.12229800224304200000e+000) (29, 5.31070800781250000000e+002) (30, 5.86183834075927730000e+000) (31, -1.33962702751159670000e+000) (32, 5.75412273406982420000e+000) (33, 1.53920831680297850000e+001) 
