FANN_FLO_2.1
num_layers=5
learning_rate=0.700000
connection_rate=1.000000
network_type=0
learning_momentum=0.000000
training_algorithm=2
train_error_function=1
train_stop_function=0
cascade_output_change_fraction=0.010000
quickprop_decay=-0.000100
quickprop_mu=1.750000
rprop_increase_factor=1.200000
rprop_decrease_factor=0.500000
rprop_delta_min=0.000000
rprop_delta_max=50.000000
rprop_delta_zero=0.100000
cascade_output_stagnation_epochs=12
cascade_candidate_change_fraction=0.010000
cascade_candidate_stagnation_epochs=12
cascade_max_out_epochs=150
cascade_min_out_epochs=50
cascade_max_cand_epochs=150
cascade_min_cand_epochs=50
cascade_num_candidate_groups=2
bit_fail_limit=3.49999994039535520000e-001
cascade_candidate_limit=1.00000000000000000000e+003
cascade_weight_multiplier=4.00000005960464480000e-001
cascade_activation_functions_count=10
cascade_activation_functions=3 5 7 8 10 11 14 15 16 17 
cascade_activation_steepnesses_count=4
cascade_activation_steepnesses=2.50000000000000000000e-001 5.00000000000000000000e-001 7.50000000000000000000e-001 1.00000000000000000000e+000 
layer_sizes=5 21 17 13 5 
scale_included=0
neurons (num_inputs, activation_function, activation_steepness)=(0, 0, 0.00000000000000000000e+000) (0, 0, 0.00000000000000000000e+000) (0, 0, 0.00000000000000000000e+000) (0, 0, 0.00000000000000000000e+000) (0, 0, 0.00000000000000000000e+000) (5, 5, 9.99999977648258210000e-003) (5, 5, 9.99999977648258210000e-003) (5, 5, 9.99999977648258210000e-003) (5, 5, 9.99999977648258210000e-003) (5, 5, 9.99999977648258210000e-003) (5, 5, 9.99999977648258210000e-003) (5, 5, 9.99999977648258210000e-003) (5, 5, 9.99999977648258210000e-003) (5, 5, 9.99999977648258210000e-003) (5, 5, 9.99999977648258210000e-003) (5, 5, 9.99999977648258210000e-003) (5, 5, 9.99999977648258210000e-003) (5, 5, 9.99999977648258210000e-003) (5, 5, 9.99999977648258210000e-003) (5, 5, 9.99999977648258210000e-003) (5, 5, 9.99999977648258210000e-003) (5, 5, 9.99999977648258210000e-003) (5, 5, 9.99999977648258210000e-003) (5, 5, 9.99999977648258210000e-003) (5, 5, 9.99999977648258210000e-003) (0, 0, 0.00000000000000000000e+000) (21, 5, 9.99999977648258210000e-003) (21, 5, 9.99999977648258210000e-003) (21, 5, 9.99999977648258210000e-003) (21, 5, 9.99999977648258210000e-003) (21, 5, 9.99999977648258210000e-003) (21, 5, 9.99999977648258210000e-003) (21, 5, 9.99999977648258210000e-003) (21, 5, 9.99999977648258210000e-003) (21, 5, 9.99999977648258210000e-003) (21, 5, 9.99999977648258210000e-003) (21, 5, 9.99999977648258210000e-003) (21, 5, 9.99999977648258210000e-003) (21, 5, 9.99999977648258210000e-003) (21, 5, 9.99999977648258210000e-003) (21, 5, 9.99999977648258210000e-003) (21, 5, 9.99999977648258210000e-003) (0, 0, 0.00000000000000000000e+000) (17, 5, 9.99999977648258210000e-003) (17, 5, 9.99999977648258210000e-003) (17, 5, 9.99999977648258210000e-003) (17, 5, 9.99999977648258210000e-003) (17, 5, 9.99999977648258210000e-003) (17, 5, 9.99999977648258210000e-003) (17, 5, 9.99999977648258210000e-003) (17, 5, 9.99999977648258210000e-003) (17, 5, 9.99999977648258210000e-003) (17, 5, 9.99999977648258210000e-003) (17, 5, 9.99999977648258210000e-003) (17, 5, 9.99999977648258210000e-003) (0, 0, 0.00000000000000000000e+000) (13, 5, 9.99999977648258210000e-003) (13, 5, 9.99999977648258210000e-003) (13, 5, 9.99999977648258210000e-003) (13, 5, 9.99999977648258210000e-003) (0, 0, 0.00000000000000000000e+000) 
connections (connected_to_neuron, weight)=(0, 2.61705245971679690000e+001) (1, -4.44513702392578130000e+001) (2, -1.54524507522583010000e+001) (3, -1.91376457214355470000e+001) (4, 6.48133182525634770000e+000) (0, -4.35613327026367190000e+001) (1, 8.44018554687500000000e+001) (2, -7.18907699584960940000e+001) (3, 5.93300094604492190000e+001) (4, 7.36933708190917970000e+000) (0, -7.76283035278320310000e+001) (1, 9.78222351074218750000e+001) (2, 7.56489410400390630000e+001) (3, 5.07325363159179690000e+001) (4, 2.30694127082824710000e+000) (0, 3.76824531555175780000e+001) (1, 1.21702890396118160000e+001) (2, 3.09955921173095700000e+001) (3, -1.07975921630859380000e+001) (4, 6.90077686309814450000e+000) (0, -7.77133941650390630000e+001) (1, 9.79100341796875000000e+001) (2, 7.55309600830078130000e+001) (3, 5.09571685791015630000e+001) (4, 2.27589464187622070000e+000) (0, -7.78175735473632810000e+001) (1, 9.79512176513671880000e+001) (2, 7.58928604125976560000e+001) (3, 5.06681404113769530000e+001) (4, 2.26814723014831540000e+000) (0, -6.05819778442382810000e+001) (1, 8.23053588867187500000e+001) (2, -5.26042251586914060000e+001) (3, 6.38535614013671870000e+001) (4, 7.34904527664184570000e+000) (0, -7.77385177612304690000e+001) (1, 9.79685821533203120000e+001) (2, 7.55828247070312500000e+001) (3, 5.08097686767578120000e+001) (4, 2.30246376991271970000e+000) (0, 2.83771419525146480000e+001) (1, -4.18249893188476560000e+001) (2, -1.54010858535766600000e+001) (3, -1.91962833404541020000e+001) (4, 6.50037574768066410000e+000) (0, 3.78220863342285160000e+001) (1, 2.41875896453857420000e+001) (2, 3.06291217803955080000e+001) (3, -1.82656593322753910000e+001) (4, 6.89904022216796870000e+000) (0, -6.92358398437500000000e+001) (1, 8.45632553100585940000e+001) (2, 2.28478169441223140000e+000) (3, 4.84043884277343750000e+001) (4, 7.37399435043334960000e+000) (0, 2.15006675720214840000e+001) (1, -4.98838577270507810000e+001) (2, -2.46050968170166020000e+001) (3, -3.78221893310546870000e+000) (4, 2.45788860321044920000e+000) (0, -7.77447433471679690000e+001) (1, 9.79827423095703130000e+001) (2, 7.55093536376953130000e+001) (3, 5.09495849609375000000e+001) (4, 2.27796149253845210000e+000) (0, 3.67925796508789060000e+001) (1, -3.22825698852539060000e+001) (2, -1.99178218841552730000e+001) (3, -2.18821678161621090000e+001) (4, 6.49042987823486330000e+000) (0, -4.21918411254882810000e+001) (1, 1.33362686157226560000e+002) (2, -7.79766693115234380000e+001) (3, 6.82445526123046880000e+001) (4, 2.65321278572082520000e+000) (0, -7.76567535400390620000e+001) (1, 9.78428039550781250000e+001) (2, 7.56300354003906250000e+001) (3, 5.07737159729003910000e+001) (4, 2.30936932563781740000e+000) (0, -7.77740173339843750000e+001) (1, 9.79385910034179690000e+001) (2, 7.54614562988281250000e+001) (3, 5.10194778442382810000e+001) (4, 2.27892756462097170000e+000) (0, 2.84758167266845700000e+001) (1, -4.09089279174804690000e+001) (2, -1.54034986495971680000e+001) (3, -1.50744800567626950000e+001) (4, 6.47450637817382810000e+000) (0, -4.36155776977539060000e+001) (1, 8.43812942504882810000e+001) (2, -7.34368820190429690000e+001) (3, 6.05841560363769530000e+001) (4, 7.35044384002685550000e+000) (0, -6.08995666503906250000e+001) (1, 8.19239730834960940000e+001) (2, -5.50820198059082030000e+001) (3, 6.54501571655273440000e+001) (4, 7.37332677841186520000e+000) (5, 1.52701530456542970000e+001) (6, 2.41931037902832030000e+001) (7, -3.23831105232238770000e+000) (8, 1.85151309967041020000e+001) (9, -3.32044553756713870000e+000) (10, -3.25752139091491700000e+000) (11, 2.27865085601806640000e+001) (12, -3.35396099090576170000e+000) (13, 1.60703849792480470000e+001) (14, 5.39715652465820310000e+001) (15, 1.34271020889282230000e+001) (16, -5.09692096710205080000e+000) (17, -3.35903882980346680000e+000) (18, -2.10762672424316410000e+001) (19, -2.64570369720458980000e+001) (20, -3.32851767539978030000e+000) (21, -3.32232165336608890000e+000) (22, -1.20539915561676030000e+000) (23, 1.56813402175903320000e+001) (24, 2.24426288604736330000e+001) (25, 7.70659971237182620000e+000) (5, 1.17575550079345700000e+001) (6, 1.76556301116943360000e+001) (7, -2.74781203269958500000e+000) (8, 2.35481166839599610000e+001) (9, -2.80585050582885740000e+000) (10, -2.78770565986633300000e+000) (11, 1.16910715103149410000e+001) (12, -2.84598898887634280000e+000) (13, 1.01744670867919920000e+001) (14, 2.51940593719482420000e+001) (15, 1.23486919403076170000e+001) (16, -2.99301052093505860000e+001) (17, -2.76730298995971680000e+000) (18, -1.22900342941284180000e+001) (19, -1.23105144500732420000e+001) (20, -2.82178497314453120000e+000) (21, -2.76277899742126460000e+000) (22, -5.00871706008911130000e+000) (23, 1.61985397338867190000e+001) (24, 1.11735219955444340000e+001) (25, 8.04242229461669920000e+000) (5, 3.97476654052734380000e+001) (6, -1.20350084304809570000e+001) (7, 1.66455650329589840000e+001) (8, -8.38666343688964840000e+000) (9, 1.65555496215820310000e+001) (10, 1.66166419982910160000e+001) (11, -1.56313943862915040000e+000) (12, 1.66657676696777340000e+001) (13, 2.41001091003417970000e+001) (14, -1.31327209472656250000e+001) (15, 6.37909030914306640000e+000) (16, 6.64991455078125000000e+001) (17, 1.66102142333984380000e+001) (18, 5.06647453308105470000e+001) (19, 1.87132663726806640000e+001) (20, 1.66649932861328120000e+001) (21, 1.67088241577148440000e+001) (22, 3.55421943664550780000e+001) (23, -1.14488115310668950000e+001) (24, -2.92262339591979980000e+000) (25, 2.78811836242675780000e+000) (5, 3.62747344970703130000e+001) (6, -2.49691224098205570000e+000) (7, 1.03134450912475590000e+001) (8, -9.35539484024047850000e-001) (9, 1.02881317138671870000e+001) (10, 1.03682231903076170000e+001) (11, 2.99661231040954590000e+000) (12, 1.04224948883056640000e+001) (13, 1.93292865753173830000e+001) (14, -2.75738406181335450000e+000) (15, 8.17345046997070310000e+000) (16, 2.40133552551269530000e+001) (17, 1.03708076477050780000e+001) (18, 8.93796997070312500000e+001) (19, 1.89018974304199220000e+001) (20, 1.04502658843994140000e+001) (21, 1.03141641616821290000e+001) (22, 3.93527832031250000000e+001) (23, -1.69475507736206050000e+000) (24, 3.75520634651184080000e+000) (25, 5.14872264862060550000e+000) (5, 3.99512786865234370000e+001) (6, -1.19572219848632810000e+001) (7, 1.66028804779052730000e+001) (8, -5.23930883407592770000e+000) (9, 1.65772228240966800000e+001) (10, 1.67361240386962890000e+001) (11, 9.76158380508422850000e-002) (12, 1.65687026977539060000e+001) (13, 2.47857074737548830000e+001) (14, -7.97201681137084960000e+000) (15, 6.49259328842163090000e+000) (16, 6.70249099731445310000e+001) (17, 1.65912914276123050000e+001) (18, 5.58974380493164060000e+001) (19, 1.28911867141723630000e+001) (20, 1.66454219818115230000e+001) (21, 1.66780109405517580000e+001) (22, 3.49508514404296880000e+001) (23, -1.11538858413696290000e+001) (24, -2.32368254661560060000e+000) (25, 2.78156709671020510000e+000) (5, 3.93341331481933590000e+001) (6, -6.82268524169921870000e+000) (7, 1.62440299987792970000e+001) (8, -4.67629384994506840000e+000) (9, 1.61144790649414060000e+001) (10, 1.61581783294677730000e+001) (11, -1.98084926605224610000e+000) (12, 1.62328586578369140000e+001) (13, 2.32523097991943360000e+001) (14, -9.41021156311035160000e+000) (15, 6.31213140487670900000e+000) (16, 7.45385742187500000000e+001) (17, 1.62937679290771480000e+001) (18, 5.89303054809570310000e+001) (19, 1.67908267974853520000e+001) (20, 1.61758918762207030000e+001) (21, 1.61295413970947270000e+001) (22, 3.61177597045898440000e+001) (23, -6.18953752517700200000e+000) (24, -6.95719361305236820000e-001) (25, 2.74768733978271480000e+000) (5, 1.83750953674316410000e+001) (6, -4.12847399711608890000e-001) (7, 4.15853261947631840000e+000) (8, -1.44607305526733400000e+000) (9, 4.21553087234497070000e+000) (10, 4.06431913375854490000e+000) (11, 8.08608293533325200000e-001) (12, 4.20547056198120120000e+000) (13, 1.20838155746459960000e+001) (14, -8.28707218170166020000e+000) (15, 6.57324695587158200000e+000) (16, -4.83991920948028560000e-001) (17, 4.17483615875244140000e+000) (18, 9.68196411132812500000e+001) (19, 3.11583080291748050000e+001) (20, 4.10993003845214840000e+000) (21, 4.10820245742797850000e+000) (22, 2.88115310668945310000e+001) (23, -1.09825104475021360000e-001) (24, 8.66644024848937990000e-001) (25, 2.21055388450622560000e+000) (5, 1.19556093215942380000e+001) (6, 1.86890125274658200000e+001) (7, -2.83195257186889650000e+000) (8, 2.34816341400146480000e+001) (9, -2.86318874359130860000e+000) (10, -2.91385507583618160000e+000) (11, 1.76394119262695310000e+001) (12, -2.81334114074707030000e+000) (13, 1.01505422592163090000e+001) (14, 3.35460548400878910000e+001) (15, 1.21687660217285160000e+001) (16, -2.31023960113525390000e+001) (17, -2.74389958381652830000e+000) (18, -4.14125919342041020000e+000) (19, -2.05039138793945310000e+001) (20, -2.81229281425476070000e+000) (21, -2.91164231300354000000e+000) (22, -5.38141632080078120000e+000) (23, 1.80744895935058590000e+001) (24, 1.76750526428222660000e+001) (25, 8.02557373046875000000e+000) (5, 1.48348007202148440000e+001) (6, 2.21853942871093750000e+001) (7, -3.26772093772888180000e+000) (8, 1.95689830780029300000e+001) (9, -3.30933713912963870000e+000) (10, -3.22623729705810550000e+000) (11, 1.75539150238037110000e+001) (12, -3.33518218994140620000e+000) (13, 1.48679628372192380000e+001) (14, 3.58492927551269530000e+001) (15, 1.35071954727172850000e+001) (16, -2.75405845642089840000e+001) (17, -3.23819446563720700000e+000) (18, -2.07594738006591800000e+001) (19, -9.80506515502929690000e+000) (20, -3.27002644538879390000e+000) (21, -3.32177448272705080000e+000) (22, -1.51731455326080320000e+000) (23, 2.18324394226074220000e+001) (24, 8.90514469146728520000e+000) (25, 7.70535802841186520000e+000) (5, 1.21206445693969730000e+001) (6, 1.80160217285156250000e+001) (7, -2.89170312881469730000e+000) (8, 2.40406875610351560000e+001) (9, -2.88775753974914550000e+000) (10, -2.93381643295288090000e+000) (11, 1.52566280364990230000e+001) (12, -2.89002108573913570000e+000) (13, 1.03554201126098630000e+001) (14, 2.56630954742431640000e+001) (15, 1.23335447311401370000e+001) (16, -3.05682411193847660000e+001) (17, -2.86624360084533690000e+000) (18, -1.26463584899902340000e+001) (19, -2.11047420501708980000e+001) (20, -2.79875731468200680000e+000) (21, -2.91032767295837400000e+000) (22, -4.85922908782958980000e+000) (23, 1.66200428009033200000e+001) (24, 1.15197649002075200000e+001) (25, 8.03474044799804690000e+000) (5, 1.14364995956420900000e+001) (6, 1.86492290496826170000e+001) (7, -2.87018990516662600000e+000) (8, 2.33416576385498050000e+001) (9, -2.89984607696533200000e+000) (10, -2.75665664672851560000e+000) (11, 1.56988763809204100000e+001) (12, -2.87134909629821780000e+000) (13, 1.03423128128051760000e+001) (14, 2.57626838684082030000e+001) (15, 1.22128829956054690000e+001) (16, -2.98742828369140620000e+001) (17, -2.90607619285583500000e+000) (18, -6.20396614074707030000e-001) (19, 2.06659483909606930000e+000) (20, -2.85712957382202150000e+000) (21, -2.84583950042724610000e+000) (22, -7.69723415374755860000e+000) (23, 1.82856960296630860000e+001) (24, 1.26456279754638670000e+001) (25, 8.00548171997070310000e+000) (5, 1.90285453796386720000e+001) (6, -7.19458535313606260000e-002) (7, 4.07993793487548830000e+000) (8, -1.07298970222473140000e-001) (9, 4.07914066314697270000e+000) (10, 4.21233987808227540000e+000) (11, 1.14776706695556640000e+000) (12, 4.16898298263549800000e+000) (13, 1.21138305664062500000e+001) (14, -6.57158327102661130000e+000) (15, 6.51060199737548830000e+000) (16, -2.87003154754638670000e+001) (17, 4.20059823989868160000e+000) (18, 1.22343406677246090000e+002) (19, 2.57912845611572270000e+001) (20, 4.22127771377563480000e+000) (21, 4.21219921112060550000e+000) (22, 2.99821815490722660000e+001) (23, 1.35124966502189640000e-001) (24, 1.01423180103302000000e+000) (25, 2.19168829917907710000e+000) (5, 1.20856132507324220000e+001) (6, 1.90742397308349610000e+001) (7, -3.24835014343261720000e+000) (8, 2.42922096252441410000e+001) (9, -3.12621164321899410000e+000) (10, -3.08209848403930660000e+000) (11, 1.76450328826904300000e+001) (12, -3.24935436248779300000e+000) (13, 9.25430679321289060000e+000) (14, 4.38665580749511720000e+001) (15, 1.21376018524169920000e+001) (16, -2.02765274047851560000e+001) (17, -3.16926622390747070000e+000) (18, -5.94404792785644530000e+000) (19, -3.15354232788085940000e+001) (20, -3.16120815277099610000e+000) (21, -3.08523225784301760000e+000) (22, -4.37151765823364260000e+000) (23, 1.80697288513183590000e+001) (24, 1.77273311614990230000e+001) (25, 7.99977588653564450000e+000) (5, 1.50404462814331050000e+001) (6, 2.21113567352294920000e+001) (7, -3.31623697280883790000e+000) (8, 1.92383975982666020000e+001) (9, -3.27886772155761720000e+000) (10, -3.31407928466796870000e+000) (11, 1.73033218383789060000e+001) (12, -3.23276424407958980000e+000) (13, 1.43700952529907230000e+001) (14, 3.58667411804199220000e+001) (15, 1.35067071914672850000e+001) (16, -2.93455734252929690000e+001) (17, -3.15063238143920900000e+000) (18, -1.57098941802978520000e+001) (19, -1.32631740570068360000e+001) (20, -3.31027698516845700000e+000) (21, -3.21581840515136720000e+000) (22, -1.08540832996368410000e+000) (23, 2.11492080688476560000e+001) (24, 1.67099590301513670000e+001) (25, 7.70820236206054690000e+000) (5, 3.40459022521972660000e+001) (6, -2.51042842864990230000e+000) (7, 1.03844585418701170000e+001) (8, -9.00094270706176760000e-001) (9, 1.03006687164306640000e+001) (10, 1.04245977401733400000e+001) (11, 1.94939091801643370000e-001) (12, 1.03383159637451170000e+001) (13, 1.91804370880126950000e+001) (14, -6.04581415653228760000e-001) (15, 8.25464725494384770000e+000) (16, 3.34270591735839840000e+001) (17, 1.04550943374633790000e+001) (18, 7.40091857910156250000e+001) (19, 1.67267322540283200000e+001) (20, 1.04637079238891600000e+001) (21, 1.03502521514892580000e+001) (22, 3.91914253234863280000e+001) (23, -2.21705532073974610000e+000) (24, 7.03396081924438480000e-001) (25, 5.13657093048095700000e+000) (5, 1.17581796646118160000e+001) (6, 1.87070636749267580000e+001) (7, -2.84274673461914060000e+000) (8, 2.32131061553955080000e+001) (9, -2.79987072944641110000e+000) (10, -2.89861226081848140000e+000) (11, 1.57775926589965820000e+001) (12, -2.92198681831359860000e+000) (13, 1.04241809844970700000e+001) (14, 2.55997829437255860000e+001) (15, 1.20814876556396480000e+001) (16, -1.93014068603515630000e+001) (17, -2.74549722671508790000e+000) (18, -5.99389839172363280000e+000) (19, 2.00180196762084960000e+000) (20, -2.93475770950317380000e+000) (21, -2.85631489753723140000e+000) (22, -6.01773071289062500000e+000) (23, 1.82390079498291020000e+001) (24, 1.26512689590454100000e+001) (25, 8.04074478149414060000e+000) (26, -1.38438291549682620000e+001) (27, -1.79320545196533200000e+001) (28, 3.02367782592773440000e+001) (29, 1.96374073028564450000e+001) (30, 3.01299095153808590000e+001) (31, 3.01620559692382810000e+001) (32, 1.54488388061523440000e+002) (33, -1.81374015808105470000e+001) (34, -1.44568004608154300000e+001) (35, -1.83274517059326170000e+001) (36, -1.13962421417236330000e+001) (37, 3.43212242126464840000e+001) (38, -6.49931335449218750000e+001) (39, -1.26930465698242190000e+001) (40, 1.96586856842041020000e+001) (41, -1.75093326568603520000e+001) (42, 9.07647684216499330000e-002) (26, 2.60595149993896480000e+001) (27, 2.63408489227294920000e+001) (28, -1.73553657531738280000e+001) (29, -5.52864611148834230000e-001) (30, -1.61125011444091800000e+001) (31, -2.04549694061279300000e+001) (32, -9.24881362915039060000e+001) (33, 2.67473831176757810000e+001) (34, 2.60320377349853520000e+001) (35, 2.69984359741210940000e+001) (36, 2.61443042755126950000e+001) (37, -3.19579696655273440000e+001) (38, 1.26528022766113280000e+002) (39, 2.33099575042724610000e+001) (40, -6.99651718139648440000e-001) (41, 2.57039146423339840000e+001) (42, 9.25091552734375000000e+000) (26, 3.18404254913330080000e+001) (27, 2.66276969909667970000e+001) (28, -1.55048770904541020000e+001) (29, -1.82766199111938480000e-001) (30, -1.54073371887207030000e+001) (31, -1.54974021911621090000e+001) (32, -7.68444213867187500000e+001) (33, 2.70031280517578130000e+001) (34, 3.19792842864990230000e+001) (35, 2.71984786987304690000e+001) (36, 2.65314941406250000000e+001) (37, -1.51099748611450200000e+001) (38, 1.51915756225585940000e+002) (39, 3.16794013977050780000e+001) (40, -2.38137796521186830000e-001) (41, 2.61534538269042970000e+001) (42, 7.70676422119140620000e+000) (26, -2.34280834197998050000e+001) (27, -1.69426631927490230000e+001) (28, 2.47558994293212890000e+001) (29, 2.22425117492675780000e+001) (30, 2.47946472167968750000e+001) (31, 2.76943988800048830000e+001) (32, 9.39832611083984380000e+001) (33, -1.73279418945312500000e+001) (34, -1.13683395385742190000e+001) (35, -1.72386016845703120000e+001) (36, -1.02649593353271480000e+001) (37, 4.15515708923339840000e+001) (38, -1.27427322387695310000e+002) (39, -1.10790338516235350000e+001) (40, 2.18386459350585940000e+001) (41, -1.67434997558593750000e+001) (42, 5.06797790527343750000e-001) (26, -8.48565864562988280000e+000) (27, -1.17456674575805660000e+001) (28, 3.50862731933593750000e+001) (29, 2.99417915344238280000e+001) (30, 3.50196151733398440000e+001) (31, 4.90043411254882810000e+001) (32, 1.54660034179687500000e+002) (33, -1.17018165588378910000e+001) (34, -8.39183998107910160000e+000) (35, -1.21379566192626950000e+001) (36, -1.15747327804565430000e+001) (37, 3.86980094909667970000e+001) (38, -5.23629531860351560000e+001) (39, -8.25793361663818360000e+000) (40, 3.00802173614501950000e+001) (41, -1.11826782226562500000e+001) (42, 6.80739521980285640000e-001) (26, -1.17825059890747070000e+001) (27, -1.84008998870849610000e+001) (28, 2.55017375946044920000e+001) (29, 2.51025886535644530000e+001) (30, 2.53119297027587890000e+001) (31, 2.53106021881103520000e+001) (32, 1.32263259887695310000e+002) (33, -1.86996250152587890000e+001) (34, -1.04143419265747070000e+001) (35, -1.87752094268798830000e+001) (36, -1.83060970306396480000e+001) (37, 4.39070053100585940000e+001) (38, -8.15759506225585940000e+001) (39, -1.02123870849609370000e+001) (40, 2.48861694335937500000e+001) (41, -1.80273742675781250000e+001) (42, 7.47566938400268550000e-001) (26, -1.58050870895385740000e+001) (27, -1.86772022247314450000e+001) (28, 3.35715141296386720000e+001) (29, 1.96394977569580080000e+001) (30, 3.35018157958984380000e+001) (31, 3.35439910888671880000e+001) (32, 7.80612258911132810000e+001) (33, -1.99240188598632810000e+001) (34, -1.57725181579589840000e+001) (35, -2.02821121215820310000e+001) (36, -1.95310649871826170000e+001) (37, -1.51625919342041020000e+000) (38, -1.59883224487304690000e+002) (39, -1.57321567535400390000e+001) (40, 1.90736351013183590000e+001) (41, -1.95624790191650390000e+001) (42, 5.93519330024719240000e-001) (26, -1.17252416610717770000e+001) (27, -9.48639202117919920000e+000) (28, 4.09872016906738280000e+001) (29, 1.14881486892700200000e+001) (30, 4.07992668151855470000e+001) (31, 4.08239974975585940000e+001) (32, 1.61566375732421870000e+002) (33, -9.55934238433837890000e+000) (34, -1.03169164657592770000e+001) (35, -9.73467540740966800000e+000) (36, -9.47783374786376950000e+000) (37, 4.56459159851074220000e+001) (38, -9.44684982299804690000e+001) (39, -1.02493171691894530000e+001) (40, 1.11999940872192380000e+001) (41, -9.39142513275146480000e+000) (42, 8.36069107055664060000e+000) (26, -1.46834793090820310000e+001) (27, -1.16734161376953120000e+001) (28, 3.43500251770019530000e+001) (29, 3.34704704284667970000e+001) (30, 3.43282165527343750000e+001) (31, 3.53140754699707030000e+001) (32, 1.67199142456054690000e+002) (33, -1.23044900894165040000e+001) (34, -1.46824312210083010000e+001) (35, -1.20728302001953130000e+001) (36, -1.21353540420532230000e+001) (37, 2.62922554016113280000e+001) (38, -4.11420326232910160000e+001) (39, -1.45491867065429690000e+001) (40, 3.34683341979980470000e+001) (41, -1.15988883972167970000e+001) (42, 5.19677579402923580000e-001) (26, -1.24683189392089840000e+001) (27, -8.60035991668701170000e+000) (28, 2.77645225524902340000e+001) (29, 1.80575885772705080000e+001) (30, 2.17767696380615230000e+001) (31, 2.57981491088867190000e+001) (32, 2.01938064575195310000e+002) (33, -8.56678295135498050000e+000) (34, -1.19936332702636720000e+001) (35, -8.68143844604492190000e+000) (36, -8.38143825531005860000e+000) (37, 6.81420211791992190000e+001) (38, -5.13555793762207030000e+001) (39, -1.13570671081542970000e+001) (40, 1.80052700042724610000e+001) (41, -8.40160560607910160000e+000) (42, 2.02269196510314940000e+000) (26, -6.25984096527099610000e+000) (27, -1.68164558410644530000e+001) (28, 2.81348800659179690000e+001) (29, 1.97214374542236330000e+001) (30, 2.80706195831298830000e+001) (31, 3.51857757568359370000e+001) (32, 1.40124496459960940000e+002) (33, -1.72062644958496090000e+001) (34, -6.22474813461303710000e+000) (35, -1.74160404205322270000e+001) (36, -1.66964588165283200000e+001) (37, 5.12274703979492190000e+001) (38, -8.05720062255859380000e+001) (39, -6.03468179702758790000e+000) (40, 1.96160717010498050000e+001) (41, -1.65082263946533200000e+001) (42, 7.14403271675109860000e-001) (26, -1.02960681915283200000e+001) (27, -1.71195850372314450000e+001) (28, 3.00473270416259770000e+001) (29, 2.76412200927734380000e+001) (30, 2.96010189056396480000e+001) (31, 3.74872436523437500000e+001) (32, 1.86824508666992190000e+002) (33, -1.02270145416259770000e+001) (34, -1.03018426895141600000e+001) (35, -1.75364208221435550000e+001) (36, -1.00004510879516600000e+001) (37, 4.62499542236328130000e+001) (38, -2.43240985870361330000e+001) (39, -1.01602506637573240000e+001) (40, 2.48135528564453130000e+001) (41, -1.68649616241455080000e+001) (42, 7.11138248443603520000e-001) (43, -1.50000000000000000000e+003) (44, 1.49598339843750000000e+003) (45, 1.49958117675781250000e+003) (46, -1.50000000000000000000e+003) (47, -1.49889160156250000000e+003) (48, -1.50000000000000000000e+003) (49, -1.47500000000000000000e+003) (50, -1.50000000000000000000e+003) (51, -1.49820935058593750000e+003) (52, -1.49659082031250000000e+003) (53, -1.50000000000000000000e+003) (54, -1.49888684082031250000e+003) (55, 1.49979797363281250000e+003) (43, -1.50000000000000000000e+003) (44, 1.50000000000000000000e+003) (45, 1.50000000000000000000e+003) (46, -1.48500000000000000000e+003) (47, -1.49995080566406250000e+003) (48, -1.50000000000000000000e+003) (49, -1.49100000000000000000e+003) (50, -1.50000000000000000000e+003) (51, -1.50000000000000000000e+003) (52, -1.49995080566406250000e+003) (53, -1.50000000000000000000e+003) (54, -1.49997949218750000000e+003) (55, 1.50000000000000000000e+003) (43, -1.50000000000000000000e+003) (44, 1.49983911132812500000e+003) (45, 1.50000000000000000000e+003) (46, -1.50000000000000000000e+003) (47, -1.50000000000000000000e+003) (48, -1.50000000000000000000e+003) (49, -1.50000000000000000000e+003) (50, -1.50000000000000000000e+003) (51, -1.50000000000000000000e+003) (52, -1.50000000000000000000e+003) (53, -1.50000000000000000000e+003) (54, -1.50000000000000000000e+003) (55, 1.49999133300781250000e+003) (43, -1.50000000000000000000e+003) (44, 1.50000000000000000000e+003) (45, 1.50000000000000000000e+003) (46, -1.48500000000000000000e+003) (47, -1.50000000000000000000e+003) (48, -1.50000000000000000000e+003) (49, -1.49100000000000000000e+003) (50, -1.50000000000000000000e+003) (51, -1.50000000000000000000e+003) (52, -1.50000000000000000000e+003) (53, -1.50000000000000000000e+003) (54, -1.49990246582031250000e+003) (55, 1.50000000000000000000e+003) 
