FANN_FLO_2.1
num_layers=4
learning_rate=0.700000
connection_rate=1.000000
network_type=0
learning_momentum=0.000000
training_algorithm=2
train_error_function=1
train_stop_function=0
cascade_output_change_fraction=0.010000
quickprop_decay=-0.000100
quickprop_mu=1.750000
rprop_increase_factor=1.200000
rprop_decrease_factor=0.500000
rprop_delta_min=0.000000
rprop_delta_max=50.000000
rprop_delta_zero=0.100000
cascade_output_stagnation_epochs=12
cascade_candidate_change_fraction=0.010000
cascade_candidate_stagnation_epochs=12
cascade_max_out_epochs=150
cascade_min_out_epochs=50
cascade_max_cand_epochs=150
cascade_min_cand_epochs=50
cascade_num_candidate_groups=2
bit_fail_limit=3.49999994039535520000e-001
cascade_candidate_limit=1.00000000000000000000e+003
cascade_weight_multiplier=4.00000005960464480000e-001
cascade_activation_functions_count=10
cascade_activation_functions=3 5 7 8 10 11 14 15 16 17 
cascade_activation_steepnesses_count=4
cascade_activation_steepnesses=2.50000000000000000000e-001 5.00000000000000000000e-001 7.50000000000000000000e-001 1.00000000000000000000e+000 
layer_sizes=7 18 9 7 
scale_included=0
neurons (num_inputs, activation_function, activation_steepness)=(0, 0, 0.00000000000000000000e+000) (0, 0, 0.00000000000000000000e+000) (0, 0, 0.00000000000000000000e+000) (0, 0, 0.00000000000000000000e+000) (0, 0, 0.00000000000000000000e+000) (0, 0, 0.00000000000000000000e+000) (0, 0, 0.00000000000000000000e+000) (7, 5, 9.99999977648258210000e-003) (7, 5, 9.99999977648258210000e-003) (7, 5, 9.99999977648258210000e-003) (7, 5, 9.99999977648258210000e-003) (7, 5, 9.99999977648258210000e-003) (7, 5, 9.99999977648258210000e-003) (7, 5, 9.99999977648258210000e-003) (7, 5, 9.99999977648258210000e-003) (7, 5, 9.99999977648258210000e-003) (7, 5, 9.99999977648258210000e-003) (7, 5, 9.99999977648258210000e-003) (7, 5, 9.99999977648258210000e-003) (7, 5, 9.99999977648258210000e-003) (7, 5, 9.99999977648258210000e-003) (7, 5, 9.99999977648258210000e-003) (7, 5, 9.99999977648258210000e-003) (7, 5, 9.99999977648258210000e-003) (0, 0, 0.00000000000000000000e+000) (18, 5, 9.99999977648258210000e-003) (18, 5, 9.99999977648258210000e-003) (18, 5, 9.99999977648258210000e-003) (18, 5, 9.99999977648258210000e-003) (18, 5, 9.99999977648258210000e-003) (18, 5, 9.99999977648258210000e-003) (18, 5, 9.99999977648258210000e-003) (18, 5, 9.99999977648258210000e-003) (0, 0, 0.00000000000000000000e+000) (9, 5, 9.99999977648258210000e-003) (9, 5, 9.99999977648258210000e-003) (9, 5, 9.99999977648258210000e-003) (9, 5, 9.99999977648258210000e-003) (9, 5, 9.99999977648258210000e-003) (9, 5, 9.99999977648258210000e-003) (0, 0, 0.00000000000000000000e+000) 
connections (connected_to_neuron, weight)=(0, -3.11150875091552730000e+001) (1, 5.50825452804565430000e+000) (2, -7.43069839477539060000e+000) (3, 1.71048660278320310000e+001) (4, 1.40299873352050780000e+001) (5, 2.59122924804687500000e+001) (6, -1.34506225585937500000e+000) (0, -1.00300941467285160000e+001) (1, -4.94558448791503910000e+001) (2, -2.03625702857971190000e+000) (3, 5.83405375480651860000e-001) (4, -6.79249286651611330000e-001) (5, -1.25723850727081300000e+000) (6, 4.58793601989746090000e+001) (0, -1.15705847740173340000e+000) (1, 6.72908782958984380000e+000) (2, -4.60202407836914060000e+000) (3, 1.33497056961059570000e+001) (4, 5.96075477600097660000e+001) (5, 2.18214473724365230000e+001) (6, 4.95777206420898440000e+001) (0, 1.49999963378906250000e+003) (1, 1.50000000000000000000e+003) (2, 1.49908666992187500000e+003) (3, 1.49903295898437500000e+003) (4, 1.49892382812500000000e+003) (5, 1.49793713378906250000e+003) (6, 1.50000000000000000000e+003) (0, 1.16073350906372070000e+001) (1, 2.75244541168212890000e+001) (2, -1.11158962249755860000e+001) (3, -3.97551012039184570000e+000) (4, -1.02515392303466800000e+001) (5, -3.99673295021057130000e+000) (6, 5.34905290603637700000e+000) (0, 6.43726921081542970000e+000) (1, 4.61301994323730470000e+001) (2, 2.97668838500976560000e+000) (3, -6.52808141708374020000e+000) (4, -4.37007236480712890000e+000) (5, -1.79932489991188050000e-001) (6, 7.40849733352661130000e+000) (0, 2.11676425933837890000e+001) (1, 5.14365911483764650000e+000) (2, 3.64093804359436040000e+000) (3, 1.12743263244628910000e+001) (4, -3.67062473297119140000e+000) (5, 3.72019219398498540000e+000) (6, 4.62886476516723630000e+000) (0, -5.54990577697753910000e+000) (1, -2.78501529693603520000e+001) (2, 2.32437419891357420000e+000) (3, 4.01252746582031250000e+000) (4, 2.56811404228210450000e+000) (5, 1.52933514118194580000e+000) (6, 1.07856440544128420000e+000) (0, 5.70925903320312500000e+001) (1, -1.02746448516845700000e+001) (2, 3.46076178550720210000e+000) (3, 3.30103278160095210000e+000) (4, -1.31565988063812260000e-001) (5, 1.99382528662681580000e-001) (6, -2.15584774017333980000e+001) (0, -1.17432355880737300000e+001) (1, 1.17041778564453130000e+001) (2, -9.76744294166564940000e-001) (3, 1.08357334136962890000e+001) (4, 5.71699714660644530000e+000) (5, 4.98055696487426760000e+000) (6, 4.12492418289184570000e+000) (0, 4.84003496170043950000e+000) (1, 4.60928001403808590000e+001) (2, 4.13414335250854490000e+000) (3, -7.78381109237670900000e+000) (4, -4.25111150741577150000e+000) (5, -2.23292446136474610000e+000) (6, 7.60623788833618160000e+000) (0, -3.22335929870605470000e+001) (1, -1.04240474700927730000e+001) (2, 1.11535823345184330000e+000) (3, 4.49751806259155270000e+000) (4, -9.34652805328369140000e+000) (5, 2.18821048736572270000e+000) (6, 2.88986825942993160000e+000) (0, -1.20368270874023440000e+001) (1, 1.06725568771362300000e+001) (2, -5.86530160903930660000e+000) (3, 1.05081186294555660000e+001) (4, 8.62530517578125000000e+000) (5, 7.27225208282470700000e+000) (6, 3.94427061080932620000e+000) (0, -1.20740890502929690000e+001) (1, 1.04825658798217770000e+001) (2, -5.94238424301147460000e+000) (3, 1.08973865509033200000e+001) (4, 7.85120773315429690000e+000) (5, 7.54038000106811520000e+000) (6, 3.64509963989257810000e+000) (0, -1.06397187709808350000e+000) (1, 2.00267822265625000000e+002) (2, 1.33794963359832760000e-001) (3, -8.35512280464172360000e-001) (4, 2.08373451232910160000e+000) (5, -2.28361415863037110000e+000) (6, -7.31931838989257810000e+001) (0, 2.35183181762695310000e+002) (1, 6.81662063598632810000e+001) (2, -2.29060220718383790000e+000) (3, -8.87549579143524170000e-001) (4, 6.09675884246826170000e+000) (5, -3.55986213684082030000e+000) (6, -1.13701614379882810000e+002) (0, 4.24812889099121090000e+001) (1, -7.31837768554687500000e+001) (2, -1.19542074203491210000e+000) (3, 2.24420571327209470000e+000) (4, 4.47329092025756840000e+000) (5, -3.63622927665710450000e+000) (6, 3.69766311645507810000e+001) (7, -4.58459615707397460000e+000) (8, 3.46783569335937500000e+002) (9, 2.43803062438964840000e+001) (10, 2.50692253112792970000e+001) (11, 3.26980323791503910000e+001) (12, 5.46177406311035160000e+001) (13, 1.06884365081787110000e+001) (14, 8.39146995544433590000e+000) (15, -6.28932647705078130000e+001) (16, 2.21367969512939450000e+001) (17, 5.45686454772949220000e+001) (18, -1.45207443237304690000e+001) (19, 3.70865402221679690000e+001) (20, 4.35007438659667970000e+001) (21, -2.01505828857421870000e+002) (22, 1.54853992462158200000e+001) (23, 8.07617721557617190000e+001) (24, 4.02459907531738280000e+001) (7, -1.04367790222167970000e+002) (8, -7.49135986328125000000e+002) (9, 3.27104148864746090000e+001) (10, 2.10312709808349610000e+001) (11, 6.87244949340820310000e+001) (12, 2.83534259796142580000e+001) (13, 1.92475242614746090000e+001) (14, -8.05610351562500000000e+001) (15, 4.82937713623046880000e+002) (16, 7.39385509490966800000e+000) (17, 2.84959411621093750000e+001) (18, -1.85718292236328120000e+002) (19, 7.46774768829345700000e+000) (20, 7.02759027481079100000e+000) (21, -1.26659225463867190000e+002) (22, -2.17030349731445310000e+002) (23, -3.47577857971191410000e+001) (24, 4.87339782714843750000e+000) (7, -5.73307685852050780000e+001) (8, 4.71307868957519530000e+001) (9, 4.01757278442382810000e+001) (10, 1.90870037078857420000e+001) (11, 4.91081047058105470000e+000) (12, -6.87098324298858640000e-001) (13, 9.38380622863769530000e+000) (14, -1.01886940002441410000e+001) (15, 3.13030853271484370000e+001) (16, 5.51502513885498050000e+000) (17, -6.43991649150848390000e-001) (18, -1.57716951370239260000e+001) (19, 6.35644912719726560000e+000) (20, 6.30517148971557620000e+000) (21, -2.76226907968521120000e-001) (22, -8.00938034057617190000e+001) (23, 2.83998596191406250000e+002) (24, 5.37159490585327150000e+000) (7, -3.30993080139160160000e+001) (8, 1.53980093002319340000e+001) (9, -1.84997093677520750000e+000) (10, 6.69187498092651370000e+000) (11, -2.13966035842895510000e+000) (12, -1.12160406112670900000e+001) (13, 5.19127416610717770000e+000) (14, 2.23600006103515620000e+000) (15, -3.24853096008300780000e+001) (16, 2.99068737030029300000e+001) (17, -1.11002988815307620000e+001) (18, -5.86835718154907230000e+000) (19, 2.97843246459960940000e+001) (20, 3.02099514007568360000e+001) (21, -2.76154022216796880000e+001) (22, 1.57073469161987300000e+001) (23, -2.67354545593261720000e+001) (24, 7.91222524642944340000e+000) (7, -8.01016712188720700000e+000) (8, 2.61520935058593750000e+002) (9, 2.52610492706298830000e+001) (10, 2.53943996429443360000e+001) (11, 5.73228759765625000000e+001) (12, 5.64548225402832030000e+001) (13, 1.06056737899780270000e+001) (14, 6.47423791885375980000e+000) (15, -1.60377227783203120000e+002) (16, 2.08540973663330080000e+001) (17, 5.64833984375000000000e+001) (18, -1.49926939010620120000e+001) (19, 4.55974655151367190000e+001) (20, 3.37580680847167970000e+001) (21, -8.88061523437500000000e+001) (22, 4.23621139526367190000e+001) (23, 8.75992584228515620000e+000) (24, 3.13959140777587890000e+001) (7, 3.64301443099975590000e+000) (8, 3.63851594924926760000e+000) (9, -1.81572628021240230000e+001) (10, 3.08915805816650390000e+000) (11, -3.92131996154785160000e+000) (12, -6.50922060012817380000e+000) (13, 5.30269050598144530000e+000) (14, 4.52821063995361330000e+000) (15, 1.43026733398437500000e+001) (16, 1.55405817031860350000e+001) (17, -8.20327663421630860000e+000) (18, -2.99863290786743160000e+000) (19, 2.23214893341064450000e+001) (20, 2.73418235778808590000e+001) (21, 6.09037017822265630000e+000) (22, 3.91299694776535030000e-001) (23, -3.50631862878799440000e-001) (24, 4.11173105239868160000e+000) (7, 9.62636566162109370000e+000) (8, 5.57154724121093750000e+002) (9, 1.81032905578613280000e+001) (10, 2.12024898529052730000e+001) (11, -6.13310432434082030000e+000) (12, -7.14777040481567380000e+000) (13, 3.35550642013549800000e+000) (14, 4.41652908325195310000e+001) (15, 1.16374874114990230000e+001) (16, -1.03128433227539060000e+001) (17, -7.23000860214233400000e+000) (18, 8.26999473571777340000e+000) (19, -3.46085309982299800000e+000) (20, -3.46310210227966310000e+000) (21, 3.30457801818847660000e+001) (22, 2.68683452606201170000e+001) (23, -1.42688858509063720000e+000) (24, -1.80573511123657230000e+000) (7, -9.43424034118652340000e+000) (8, -1.22603385925292970000e+002) (9, 1.05790271759033200000e+001) (10, 1.32156085968017580000e+001) (11, 2.72413234710693360000e+001) (12, 4.05834197998046870000e+000) (13, 5.35874795913696290000e+000) (14, -2.91380081176757810000e+001) (15, 8.20576553344726560000e+001) (16, 1.12441921234130860000e+000) (17, 4.48601150512695310000e+000) (18, -4.20701217651367190000e+001) (19, -5.70073008537292480000e-001) (20, -8.66686224937438960000e-001) (21, -4.29379005432128910000e+001) (22, -4.86343345642089840000e+001) (23, 2.18805351257324220000e+001) (24, 1.89520514011383060000e+000) (25, 2.24529998779296870000e+002) (26, 6.78047729492187500000e+002) (27, -5.55229919433593750000e+002) (28, 1.49999987792968750000e+003) (29, -1.22827667236328120000e+002) (30, -2.05016098022460940000e+002) (31, 8.42024047851562500000e+002) (32, -7.62268615722656250000e+002) (33, 2.10909404754638670000e+001) (25, -7.65100280761718750000e+002) (26, 1.03121118545532230000e+001) (27, 1.31543884277343750000e+002) (28, -9.01615478515625000000e+002) (29, -4.52603851318359370000e+002) (30, 1.16931755065917970000e+002) (31, 1.40184570312500000000e+003) (32, -2.64197265625000000000e+002) (33, 2.88965034484863280000e+001) (25, 4.97192525863647460000e+000) (26, 3.45013178884983060000e-002) (27, -5.25923395156860350000e+000) (28, 1.43552291870117190000e+002) (29, -2.14331698417663570000e+000) (30, 1.11604797363281250000e+003) (31, 5.98186922073364260000e+000) (32, 6.97714004516601560000e+001) (33, 7.10834741592407230000e+000) (25, 5.60285139083862300000e+000) (26, -2.96875685453414920000e-001) (27, -6.91766738891601560000e+000) (28, 1.42322875976562500000e+002) (29, -6.04996013641357420000e+000) (30, 1.11378442382812500000e+003) (31, 7.59223556518554690000e+000) (32, 7.17224044799804690000e+001) (33, 9.84645462036132810000e+000) (25, 4.35804224014282230000e+000) (26, 2.82916605472564700000e-001) (27, -4.49257850646972660000e+000) (28, 1.40595581054687500000e+002) (29, -1.10906004905700680000e+000) (30, 1.08606835937500000000e+003) (31, 5.83543062210083010000e+000) (32, 6.69171981811523440000e+001) (33, 6.09372043609619140000e+000) (25, 5.30483913421630860000e+000) (26, -1.82301893830299380000e-001) (27, -5.98850011825561520000e+000) (28, 1.45816543579101560000e+002) (29, -3.05577397346496580000e+000) (30, 1.14480688476562500000e+003) (31, 6.64442253112792970000e+000) (32, 7.25722351074218750000e+001) (33, 7.91830921173095700000e+000) 
