FANN_FLO_2.1
num_layers=5
learning_rate=0.700000
connection_rate=1.000000
network_type=0
learning_momentum=0.000000
training_algorithm=2
train_error_function=1
train_stop_function=0
cascade_output_change_fraction=0.010000
quickprop_decay=-0.000100
quickprop_mu=1.750000
rprop_increase_factor=1.200000
rprop_decrease_factor=0.500000
rprop_delta_min=0.000000
rprop_delta_max=50.000000
rprop_delta_zero=0.100000
cascade_output_stagnation_epochs=12
cascade_candidate_change_fraction=0.010000
cascade_candidate_stagnation_epochs=12
cascade_max_out_epochs=150
cascade_min_out_epochs=50
cascade_max_cand_epochs=150
cascade_min_cand_epochs=50
cascade_num_candidate_groups=2
bit_fail_limit=3.49999994039535520000e-001
cascade_candidate_limit=1.00000000000000000000e+003
cascade_weight_multiplier=4.00000005960464480000e-001
cascade_activation_functions_count=10
cascade_activation_functions=3 5 7 8 10 11 14 15 16 17 
cascade_activation_steepnesses_count=4
cascade_activation_steepnesses=2.50000000000000000000e-001 5.00000000000000000000e-001 7.50000000000000000000e-001 1.00000000000000000000e+000 
layer_sizes=5 21 17 13 5 
scale_included=0
neurons (num_inputs, activation_function, activation_steepness)=(0, 0, 0.00000000000000000000e+000) (0, 0, 0.00000000000000000000e+000) (0, 0, 0.00000000000000000000e+000) (0, 0, 0.00000000000000000000e+000) (0, 0, 0.00000000000000000000e+000) (5, 5, 9.99999977648258210000e-003) (5, 5, 9.99999977648258210000e-003) (5, 5, 9.99999977648258210000e-003) (5, 5, 9.99999977648258210000e-003) (5, 5, 9.99999977648258210000e-003) (5, 5, 9.99999977648258210000e-003) (5, 5, 9.99999977648258210000e-003) (5, 5, 9.99999977648258210000e-003) (5, 5, 9.99999977648258210000e-003) (5, 5, 9.99999977648258210000e-003) (5, 5, 9.99999977648258210000e-003) (5, 5, 9.99999977648258210000e-003) (5, 5, 9.99999977648258210000e-003) (5, 5, 9.99999977648258210000e-003) (5, 5, 9.99999977648258210000e-003) (5, 5, 9.99999977648258210000e-003) (5, 5, 9.99999977648258210000e-003) (5, 5, 9.99999977648258210000e-003) (5, 5, 9.99999977648258210000e-003) (5, 5, 9.99999977648258210000e-003) (0, 0, 0.00000000000000000000e+000) (21, 5, 9.99999977648258210000e-003) (21, 5, 9.99999977648258210000e-003) (21, 5, 9.99999977648258210000e-003) (21, 5, 9.99999977648258210000e-003) (21, 5, 9.99999977648258210000e-003) (21, 5, 9.99999977648258210000e-003) (21, 5, 9.99999977648258210000e-003) (21, 5, 9.99999977648258210000e-003) (21, 5, 9.99999977648258210000e-003) (21, 5, 9.99999977648258210000e-003) (21, 5, 9.99999977648258210000e-003) (21, 5, 9.99999977648258210000e-003) (21, 5, 9.99999977648258210000e-003) (21, 5, 9.99999977648258210000e-003) (21, 5, 9.99999977648258210000e-003) (21, 5, 9.99999977648258210000e-003) (0, 0, 0.00000000000000000000e+000) (17, 5, 9.99999977648258210000e-003) (17, 5, 9.99999977648258210000e-003) (17, 5, 9.99999977648258210000e-003) (17, 5, 9.99999977648258210000e-003) (17, 5, 9.99999977648258210000e-003) (17, 5, 9.99999977648258210000e-003) (17, 5, 9.99999977648258210000e-003) (17, 5, 9.99999977648258210000e-003) (17, 5, 9.99999977648258210000e-003) (17, 5, 9.99999977648258210000e-003) (17, 5, 9.99999977648258210000e-003) (17, 5, 9.99999977648258210000e-003) (0, 0, 0.00000000000000000000e+000) (13, 5, 9.99999977648258210000e-003) (13, 5, 9.99999977648258210000e-003) (13, 5, 9.99999977648258210000e-003) (13, 5, 9.99999977648258210000e-003) (0, 0, 0.00000000000000000000e+000) 
connections (connected_to_neuron, weight)=(0, 2.21733589172363280000e+001) (1, -6.74289932250976560000e+001) (2, -3.53016471862792970000e+001) (3, -5.66051521301269530000e+001) (4, 1.01070737838745120000e+000) (0, -3.94921340942382810000e+001) (1, 9.80888977050781250000e+001) (2, -1.00914382934570310000e+001) (3, 8.01969528198242190000e+001) (4, 8.45514893531799320000e-001) (0, -5.53150100708007810000e+001) (1, 8.86880264282226560000e+001) (2, 8.10135574340820310000e+001) (3, 4.41056442260742190000e+001) (4, 3.26364964246749880000e-001) (0, 4.26170501708984370000e+001) (1, 4.36331329345703120000e+001) (2, 4.06098289489746090000e+001) (3, -3.35372996330261230000e+000) (4, 3.59733432531356810000e-001) (0, -5.53838577270507810000e+001) (1, 8.87758865356445310000e+001) (2, 8.08955764770507810000e+001) (3, 4.43302764892578130000e+001) (4, 2.95382529497146610000e-001) (0, -5.53519668579101560000e+001) (1, 8.88170700073242190000e+001) (2, 8.12604751586914060000e+001) (3, 4.39935302734375000000e+001) (4, 2.87650346755981450000e-001) (0, -5.69294281005859370000e+001) (1, 9.41816024780273440000e+001) (2, 8.22626304626464840000e+000) (3, 8.42835540771484380000e+001) (4, 8.14234733581542970000e-001) (0, -5.55080490112304690000e+001) (1, 8.88343658447265630000e+001) (2, 8.09474411010742190000e+001) (3, 4.42085990905761720000e+001) (4, 3.21899056434631350000e-001) (0, 2.21135749816894530000e+001) (1, -6.75393447875976560000e+001) (2, -3.52651939392089840000e+001) (3, -5.66529312133789060000e+001) (4, 1.03020691871643070000e+000) (0, 4.27399139404296880000e+001) (1, 4.36153182983398440000e+001) (2, 4.02536010742187500000e+001) (3, 2.14151501655578610000e+000) (4, 3.57392013072967530000e-001) (0, -6.28917922973632810000e+001) (1, 9.81532974243164060000e+001) (2, 1.84798729419708250000e+000) (3, 8.93974304199218750000e+001) (4, 8.06039631366729740000e-001) (0, 2.32377071380615230000e+001) (1, -6.74737701416015630000e+001) (2, -3.98294906616210940000e+001) (3, -5.61504058837890630000e+001) (4, 9.89219784736633300000e-001) (0, -5.53519515991210940000e+001) (1, 8.88485946655273440000e+001) (2, 8.08739700317382810000e+001) (3, 4.42974510192871090000e+001) (4, 2.97445297241210940000e-001) (0, 2.21421546936035160000e+001) (1, -6.73844680786132810000e+001) (2, -4.03715705871582030000e+001) (3, -3.73425865173339840000e+001) (4, 1.04624736309051510000e+000) (0, -3.32380180358886720000e+001) (1, 9.80467071533203120000e+001) (2, -2.07003993988037110000e+001) (3, 8.43061523437500000000e+001) (4, 8.33507359027862550000e-001) (0, -5.54278335571289060000e+001) (1, 8.87085952758789060000e+001) (2, 8.09946517944335940000e+001) (3, 4.41210365295410160000e+001) (4, 3.28557103872299190000e-001) (0, -5.53464279174804690000e+001) (1, 8.88046722412109380000e+001) (2, 8.08260726928710940000e+001) (3, 4.43453598022460940000e+001) (4, 2.98409551382064820000e-001) (0, 2.21668815612792970000e+001) (1, -6.74841842651367190000e+001) (2, -3.52685813903808590000e+001) (3, -5.66683273315429690000e+001) (4, 1.01940834522247310000e+000) (0, -3.95112609863281250000e+001) (1, 9.81369171142578130000e+001) (2, -1.16261787414550780000e+001) (3, 8.15013809204101560000e+001) (4, 8.26035320758819580000e-001) (0, -5.69808044433593750000e+001) (1, 9.41781234741210940000e+001) (2, 5.75731897354125980000e+000) (3, 8.62835083007812500000e+001) (4, 8.38483452796936040000e-001) (5, 2.32443189620971680000e+000) (6, 1.82056674957275390000e+001) (7, 5.21711587905883790000e+000) (8, 1.20527772903442380000e+001) (9, 5.13978624343872070000e+000) (10, 5.20059967041015620000e+000) (11, 1.82633018493652340000e+001) (12, 5.10359954833984370000e+000) (13, 2.38869333267211910000e+000) (14, 1.20304422378540040000e+001) (15, 1.50174646377563480000e+001) (16, 2.33178758621215820000e+000) (17, 5.10119295120239260000e+000) (18, 2.33028316497802730000e+000) (19, 1.81836490631103520000e+001) (20, 5.12690925598144530000e+000) (21, 5.13852167129516600000e+000) (22, 2.40205931663513180000e+000) (23, 1.81946430206298830000e+001) (24, 1.80786800384521480000e+001) (25, 8.97923290729522710000e-001) (5, 2.00764894485473630000e+000) (6, 1.26279296875000000000e+001) (7, 5.43338060379028320000e+000) (8, 1.48945512771606450000e+001) (9, 5.37668085098266600000e+000) (10, 5.39378643035888670000e+000) (11, 1.25238256454467770000e+001) (12, 5.33422136306762700000e+000) (13, 1.92566084861755370000e+000) (14, 1.47659606933593750000e+001) (15, 1.26679639816284180000e+001) (16, 2.05039787292480470000e+000) (17, 5.41545915603637700000e+000) (18, 2.06429672241210940000e+000) (19, 1.25130758285522460000e+001) (20, 5.35896539688110350000e+000) (21, 5.42001008987426760000e+000) (22, 2.08925485610961910000e+000) (23, 1.26404418945312500000e+001) (24, 1.25619421005249020000e+001) (25, 1.17955517768859860000e+000) (5, 1.80009155273437500000e+001) (6, -8.36611747741699220000e+000) (7, -2.99836659431457520000e+000) (8, -1.08140754699707030000e+001) (9, -3.09489893913269040000e+000) (10, -3.03364443778991700000e+000) (11, -8.32932758331298830000e+000) (12, -2.98372340202331540000e+000) (13, 1.78587989807128910000e+001) (14, -1.08786039352416990000e+001) (15, -8.36643600463867190000e+000) (16, 1.79580192565917970000e+001) (17, -3.03994345664978030000e+000) (18, 1.79106254577636720000e+001) (19, -8.42150592803955080000e+000) (20, -2.97883486747741700000e+000) (21, -2.94043779373168950000e+000) (22, 1.78660240173339840000e+001) (23, -8.37267971038818360000e+000) (24, -8.25342369079589840000e+000) (25, 1.39426517486572270000e+000) (5, 1.41602935791015630000e+001) (6, -7.01711416244506840000e+000) (7, -9.41749191284179690000e+000) (8, -7.03664112091064450000e+000) (9, -9.44416618347167970000e+000) (10, -9.36423778533935550000e+000) (11, -7.12095451354980470000e+000) (12, -9.30844211578369140000e+000) (13, 1.41865129470825200000e+001) (14, -7.07049942016601560000e+000) (15, -7.10564231872558590000e+000) (16, 1.25338201522827150000e+001) (17, -9.36165332794189450000e+000) (18, 1.42112379074096680000e+001) (19, -7.10888814926147460000e+000) (20, -9.28067111968994140000e+000) (21, -9.41750144958496090000e+000) (22, 1.41541261672973630000e+001) (23, -7.06857204437255860000e+000) (24, -6.99393844604492190000e+000) (25, 3.77889823913574220000e+000) (5, 1.79913330078125000000e+001) (6, -8.37536430358886720000e+000) (7, -3.04197502136230470000e+000) (8, -1.07041664123535160000e+001) (9, -3.07423305511474610000e+000) (10, -2.91146373748779300000e+000) (11, -8.28954315185546870000e+000) (12, -3.07633543014526370000e+000) (13, 1.79236030578613280000e+001) (14, -1.07053956985473630000e+001) (15, -8.26616668701171870000e+000) (16, 1.80920677185058590000e+001) (17, -3.06009078025817870000e+000) (18, 1.80595722198486330000e+001) (19, -8.31249713897705080000e+000) (20, -2.99920749664306640000e+000) (21, -2.97290921211242680000e+000) (22, 1.79973678588867190000e+001) (23, -8.33116149902343750000e+000) (24, -8.38261222839355470000e+000) (25, 1.38771378993988040000e+000) (5, 1.74655094146728520000e+001) (6, -8.23524188995361330000e+000) (7, -3.41379427909851070000e+000) (8, -1.07035980224609380000e+001) (9, -3.55053520202636720000e+000) (10, -3.50676679611206050000e+000) (11, -8.25749492645263670000e+000) (12, -3.42777562141418460000e+000) (13, 1.72980556488037110000e+001) (14, -1.08078098297119140000e+001) (15, -8.36238384246826170000e+000) (16, 1.75117321014404300000e+001) (17, -3.37045526504516600000e+000) (18, 1.74262695312500000000e+001) (19, -8.41554832458496090000e+000) (20, -3.48229527473449710000e+000) (21, -3.53555583953857420000e+000) (22, 1.73678836822509770000e+001) (23, -8.24846553802490230000e+000) (24, -8.24287605285644530000e+000) (25, 1.35313284397125240000e+000) (5, 8.49106311798095700000e+000) (6, -3.91971874237060550000e+000) (7, -1.02438917160034180000e+001) (8, -3.57407379150390620000e+000) (9, -1.01912841796875000000e+001) (10, -1.03392086029052730000e+001) (11, -3.85483360290527340000e+000) (12, -1.01970586776733400000e+001) (13, 8.52642726898193360000e+000) (14, -3.40847039222717290000e+000) (15, -3.84176349639892580000e+000) (16, 8.46984195709228520000e+000) (17, -1.02320556640625000000e+001) (18, 8.56116390228271480000e+000) (19, -3.90774059295654300000e+000) (20, -1.02922182083129880000e+001) (21, -1.02985343933105470000e+001) (22, 8.62873649597167970000e+000) (23, -3.87001752853393550000e+000) (24, -3.79422569274902340000e+000) (25, 1.02789628505706790000e+000) (5, 1.95790266990661620000e+000) (6, 1.26758499145507810000e+001) (7, 5.35329723358154300000e+000) (8, 1.48599147796630860000e+001) (9, 5.32303953170776370000e+000) (10, 5.27212190628051760000e+000) (11, 1.24712848663330080000e+001) (12, 5.37256479263305660000e+000) (13, 1.92035818099975590000e+000) (14, 1.47809238433837890000e+001) (15, 1.25428085327148440000e+001) (16, 1.97202014923095700000e+000) (17, 5.44304227828979490000e+000) (18, 1.97874164581298830000e+000) (19, 1.27811145782470700000e+001) (20, 5.37330484390258790000e+000) (21, 5.27434682846069340000e+000) (22, 2.08041882514953610000e+000) (23, 1.27490024566650390000e+001) (24, 1.26631669998168950000e+001) (25, 1.16270232200622560000e+000) (5, 2.36612653732299800000e+000) (6, 1.82832469940185550000e+001) (7, 5.17324638366699220000e+000) (8, 1.19187288284301760000e+001) (9, 5.13436317443847660000e+000) (10, 5.21769380569458010000e+000) (11, 1.82151260375976560000e+001) (12, 5.10851812362670900000e+000) (13, 2.43810606002807620000e+000) (14, 1.19561262130737300000e+001) (15, 1.50552453994750980000e+001) (16, 2.39806818962097170000e+000) (17, 5.20573663711547850000e+000) (18, 2.33745574951171870000e+000) (19, 1.82550792694091800000e+001) (20, 5.17094087600708010000e+000) (21, 5.12215662002563480000e+000) (22, 2.39702558517456050000e+000) (23, 1.82678241729736330000e+001) (24, 1.82376346588134770000e+001) (25, 8.96075010299682620000e-001) (5, 1.98092973232269290000e+000) (6, 1.25894746780395510000e+001) (7, 5.29508972167968750000e+000) (8, 1.49105482101440430000e+001) (9, 5.30309152603149410000e+000) (10, 5.25675821304321290000e+000) (11, 1.25961751937866210000e+001) (12, 5.29895257949829100000e+000) (13, 1.91734778881073000000e+000) (14, 1.48967571258544920000e+001) (15, 1.26628446578979490000e+001) (16, 1.95236897468566890000e+000) (17, 5.32473421096801760000e+000) (18, 2.06936049461364750000e+000) (19, 1.25918741226196290000e+001) (20, 5.38858842849731450000e+000) (21, 5.28043985366821290000e+000) (22, 2.06209611892700200000e+000) (23, 1.25071077346801760000e+001) (24, 1.26655769348144530000e+001) (25, 1.17267727851867680000e+000) (5, 1.92911612987518310000e+000) (6, 1.25895118713378910000e+001) (7, 5.31277418136596680000e+000) (8, 1.49094562530517580000e+001) (9, 5.28609561920166020000e+000) (10, 5.43043804168701170000e+000) (11, 1.25620269775390630000e+001) (12, 5.31357765197753910000e+000) (13, 1.96842324733734130000e+000) (14, 1.49186649322509770000e+001) (15, 1.26449317932128910000e+001) (16, 1.92548513412475590000e+000) (17, 5.27983379364013670000e+000) (18, 2.02185440063476560000e+000) (19, 1.27096214294433590000e+001) (20, 5.32591247558593750000e+000) (21, 5.34038066864013670000e+000) (22, 1.91499245166778560000e+000) (23, 1.27463550567626950000e+001) (24, 1.25923366546630860000e+001) (25, 1.14215993881225590000e+000) (5, 8.51110553741455080000e+000) (6, -3.82090902328491210000e+000) (7, -1.03328285217285160000e+001) (8, -3.49117398262023930000e+000) (9, -1.03379859924316410000e+001) (10, -1.02051286697387700000e+001) (11, -3.89525079727172850000e+000) (12, -1.02456073760986330000e+001) (13, 8.49841690063476560000e+000) (14, -3.46404075622558590000e+000) (15, -3.93670225143432620000e+000) (16, 8.50195789337158200000e+000) (17, -1.02168064117431640000e+001) (18, 8.60842704772949220000e+000) (19, -3.88942480087280270000e+000) (20, -1.01918067932128910000e+001) (21, -1.02053928375244140000e+001) (22, 8.44682502746582030000e+000) (23, -3.78213977813720700000e+000) (24, -3.84889936447143550000e+000) (25, 1.00661003589630130000e+000) (5, 4.61726069450378420000e-001) (6, 1.26218156814575200000e+001) (7, 5.21532630920410160000e+000) (8, 1.47792692184448240000e+001) (9, 5.34187746047973630000e+000) (10, 5.38541460037231450000e+000) (11, 1.24915285110473630000e+001) (12, 5.21815919876098630000e+000) (13, 3.55404585599899290000e-001) (14, 1.47936315536499020000e+001) (15, 1.25016679763793950000e+001) (16, 4.79323506355285640000e-001) (17, 5.29882287979125980000e+000) (18, 4.74649250507354740000e-001) (19, 1.25871019363403320000e+001) (20, 5.30269861221313480000e+000) (21, 5.38285684585571290000e+000) (22, 3.32831144332885740000e-001) (23, 1.26147165298461910000e+001) (24, 1.25902090072631840000e+001) (25, 1.13691031932830810000e+000) (5, 2.35117125511169430000e+000) (6, 1.82395534515380860000e+001) (7, 5.12992715835571290000e+000) (8, 1.20312662124633790000e+001) (9, 5.16938638687133790000e+000) (10, 5.13417482376098630000e+000) (11, 1.82417602539062500000e+001) (12, 5.21501922607421870000e+000) (13, 2.46615695953369140000e+000) (14, 1.19938535690307620000e+001) (15, 1.50430727005004880000e+001) (16, 2.30214834213256840000e+000) (17, 5.29762125015258790000e+000) (18, 2.40695452690124510000e+000) (19, 1.81216278076171880000e+001) (20, 5.13588714599609380000e+000) (21, 5.23243570327758790000e+000) (22, 2.33056211471557620000e+000) (23, 1.81276378631591800000e+001) (24, 1.82740001678466800000e+001) (25, 8.98919403553009030000e-001) (5, 1.42716932296752930000e+001) (6, -7.06134891510009770000e+000) (7, -9.35078048706054690000e+000) (8, -7.01680135726928710000e+000) (9, -9.44139003753662110000e+000) (10, -9.31798076629638670000e+000) (11, -6.97238111495971680000e+000) (12, -9.39875984191894530000e+000) (13, 1.43105335235595700000e+001) (14, -7.02375125885009770000e+000) (15, -7.14572572708129880000e+000) (16, 1.25869417190551760000e+001) (17, -9.28712463378906250000e+000) (18, 1.42336692810058590000e+001) (19, -7.10213756561279300000e+000) (20, -9.27169227600097660000e+000) (21, -9.39196777343750000000e+000) (22, 1.43074340820312500000e+001) (23, -7.01733541488647460000e+000) (24, -6.95149612426757810000e+000) (25, 3.76674604415893550000e+000) (5, 2.09139037132263180000e+000) (6, 1.26539001464843750000e+001) (7, 5.34630680084228520000e+000) (8, 1.47855167388916020000e+001) (9, 5.39223909378051760000e+000) (10, 5.29398965835571290000e+000) (11, 1.26437406539916990000e+001) (12, 5.26763582229614260000e+000) (13, 1.93342483043670650000e+000) (14, 1.47655687332153320000e+001) (15, 1.25179872512817380000e+001) (16, 1.99246907234191890000e+000) (17, 5.44763994216918950000e+000) (18, 2.00200772285461430000e+000) (19, 1.26562128067016600000e+001) (20, 5.25426340103149410000e+000) (21, 5.33615922927856450000e+000) (22, 1.91537749767303470000e+000) (23, 1.26991653442382810000e+001) (24, 1.25998649597167970000e+001) (25, 1.17750644683837890000e+000) (26, -1.96747744083404540000e+000) (27, -2.14718294143676760000e+000) (28, 7.94690799713134770000e+000) (29, 4.42372894287109370000e+000) (30, 7.88120174407958980000e+000) (31, 7.87711715698242190000e+000) (32, 9.61859226226806640000e+000) (33, -2.11033511161804200000e+000) (34, -1.92707908153533940000e+000) (35, -2.18925189971923830000e+000) (36, -2.21045899391174320000e+000) (37, 9.67600822448730470000e+000) (38, -2.18316841125488280000e+000) (39, -1.95241355895996090000e+000) (40, 4.46480035781860350000e+000) (41, -2.21055912971496580000e+000) (42, -1.82971000671386720000e-001) (26, 6.15163803100585940000e+000) (27, 1.06382961273193360000e+001) (28, -1.30108051300048830000e+001) (29, 1.03808176517486570000e+000) (30, -1.30006799697875980000e+001) (31, -5.62567234039306640000e+000) (32, -6.98244810104370120000e-001) (33, 1.06501846313476560000e+001) (34, 6.14228677749633790000e+000) (35, 1.06640987396240230000e+001) (36, 1.06758174896240230000e+001) (37, -7.20740497112274170000e-001) (38, 1.05695524215698240000e+001) (39, 6.13632345199584960000e+000) (40, 8.18386316299438480000e-001) (41, 1.06070499420166020000e+001) (42, 1.62697958946228030000e+000) (26, 5.57544279098510740000e+000) (27, 1.04265460968017580000e+001) (28, -1.28978385925292970000e+001) (29, 1.40197265148162840000e+000) (30, -1.28310241699218750000e+001) (31, -1.28836526870727540000e+001) (32, -3.19095075130462650000e-001) (33, 1.03955097198486330000e+001) (34, 5.68069219589233400000e+000) (35, 1.04297237396240230000e+001) (36, 1.05188007354736330000e+001) (37, -3.05948346853256230000e-001) (38, 1.04300556182861330000e+001) (39, 5.64246702194213870000e+000) (40, 1.28813648223876950000e+000) (41, 1.05245189666748050000e+001) (42, 2.73277103900909420000e-001) (26, -8.90258491039276120000e-001) (27, -1.20400023460388180000e+000) (28, 2.42027187347412110000e+000) (29, 8.97043609619140620000e+000) (30, 2.54910063743591310000e+000) (31, 2.52633905410766600000e+000) (32, 1.96446475982666020000e+001) (33, -1.34737753868103030000e+000) (34, -8.46929252147674560000e-001) (35, -1.15548396110534670000e+000) (36, -1.23131799697875980000e+000) (37, 1.97152099609375000000e+001) (38, -1.13530790805816650000e+000) (39, -7.31486797332763670000e-001) (40, 9.01857471466064450000e+000) (41, -1.20055770874023440000e+000) (42, 2.80734777450561520000e-001) (26, -4.24708604812622070000e-001) (27, -5.52062213420867920000e-001) (28, 4.26435184478759770000e+000) (29, 9.53451633453369140000e+000) (30, 4.27408075332641600000e+000) (31, 4.20557546615600590000e+000) (32, 2.05205783843994140000e+001) (33, -5.19914925098419190000e-001) (34, -3.92699331045150760000e-001) (35, -5.86899161338806150000e-001) (36, -5.41745305061340330000e-001) (37, 2.04699630737304690000e+001) (38, -5.24776399135589600000e-001) (39, -3.58951449394226070000e-001) (40, 9.68733310699462890000e+000) (41, -4.60717946290969850000e-001) (42, 4.67510730028152470000e-001) (26, -5.30176222324371340000e-001) (27, -1.02361214160919190000e+000) (28, 2.73749852180480960000e+000) (29, 1.22961807250976560000e+001) (30, 2.72253918647766110000e+000) (31, 2.68204545974731450000e+000) (32, 1.67951526641845700000e+001) (33, -1.03108298778533940000e+000) (34, -5.79962551593780520000e-001) (35, -9.96068716049194340000e-001) (36, -1.07529056072235110000e+000) (37, 1.68012447357177730000e+001) (38, -4.96385127305984500000e-001) (39, -5.32702982425689700000e-001) (40, 1.23299083709716800000e+001) (41, -1.07435667514801030000e+000) (42, 2.78107374906539920000e-001) (26, -3.09572124481201170000e+000) (27, -3.22038125991821290000e+000) (28, 1.02329397201538090000e+001) (29, 6.06077480316162110000e+000) (30, 1.02086963653564450000e+001) (31, 1.02005329132080080000e+001) (32, 4.41963815689086910000e+000) (33, -3.13424825668334960000e+000) (34, -3.11408662796020510000e+000) (35, -3.12340259552001950000e+000) (36, -3.15105724334716800000e+000) (37, 4.36384057998657230000e+000) (38, -3.21620297431945800000e+000) (39, -3.20192241668701170000e+000) (40, 6.13197755813598630000e+000) (41, -3.17778491973876950000e+000) (42, 2.31164872646331790000e-001) (26, -9.64016437530517580000e-001) (27, -9.00843441486358640000e-001) (28, 2.97551746368408200000e+001) (29, 2.55173969268798830000e+000) (30, 2.96636676788330080000e+001) (31, 2.96102313995361330000e+001) (32, 7.23033428192138670000e+000) (33, -9.82065856456756590000e-001) (34, -9.81417298316955570000e-001) (35, -1.03906571865081790000e+000) (36, -1.04736649990081790000e+000) (37, 7.29929924011230470000e+000) (38, -8.92742455005645750000e-001) (39, -1.03823482990264890000e+000) (40, 2.50053071975708010000e+000) (41, -9.60019052028656010000e-001) (42, 7.69415187835693360000e+000) (26, -6.81876778602600100000e-001) (27, -1.31997811794281010000e+000) (28, 4.14964675903320310000e+000) (29, 1.90390815734863280000e+001) (30, 4.20001983642578120000e+000) (31, 5.11737775802612300000e+000) (32, 4.02924919128417970000e+000) (33, -1.87290787696838380000e+000) (34, -5.85868299007415770000e-001) (35, -1.34618008136749270000e+000) (36, -1.89403271675109860000e+000) (37, 4.12724781036376950000e+000) (38, -1.17006123065948490000e+000) (39, -6.11662566661834720000e-001) (40, 1.90641727447509770000e+001) (41, -1.41789662837982180000e+000) (42, 7.73797750473022460000e-001) (26, -5.14762222766876220000e-001) (27, -7.47005581855773930000e-001) (28, 2.99956178665161130000e+000) (29, 3.46518230438232420000e+000) (30, 3.11882734298706050000e+000) (31, 2.98283767700195310000e+000) (32, 3.33320503234863280000e+001) (33, -7.61180818080902100000e-001) (34, -6.49333059787750240000e-001) (35, -7.20055282115936280000e-001) (36, -7.52260088920593260000e-001) (37, 3.34406814575195310000e+001) (38, -7.02696919441223140000e-001) (39, -6.47489726543426510000e-001) (40, 3.42375707626342770000e+000) (41, -7.73192226886749270000e-001) (42, 1.61721515655517580000e+000) (26, -5.23602485656738280000e-001) (27, -1.06642246246337890000e+000) (28, 2.41425275802612300000e+000) (29, 4.88699769973754880000e+000) (30, 2.44084930419921870000e+000) (31, 2.34266877174377440000e+000) (32, 2.69458103179931640000e+001) (33, -1.17978930473327640000e+000) (34, -5.15484869480133060000e-001) (35, -1.25820684432983400000e+000) (36, -1.12942934036254880000e+000) (37, 2.69407978057861330000e+001) (38, -1.10777878761291500000e+000) (39, -5.12530744075775150000e-001) (40, 4.79836082458496090000e+000) (41, -1.20836019515991210000e+000) (42, 3.38000565767288210000e-001) (26, -5.84603548049926760000e-001) (27, -7.83313095569610600000e-001) (28, 4.07526397705078120000e+000) (29, 9.67957782745361330000e+000) (30, 4.20286369323730470000e+000) (31, 4.10083007812500000000e+000) (32, 1.88477115631103520000e+001) (33, -7.62111902236938480000e-001) (34, -6.13021671772003170000e-001) (35, -6.98776543140411380000e-001) (36, -7.89225816726684570000e-001) (37, 1.89790630340576170000e+001) (38, -8.00979375839233400000e-001) (39, -6.62283182144165040000e-001) (40, 9.64567852020263670000e+000) (41, -7.62067615985870360000e-001) (42, 4.39173281192779540000e-001) (43, -4.37199640274047850000e+000) (44, 4.01349782943725590000e+000) (45, 4.74542236328125000000e+000) (46, -5.32768428325653080000e-001) (47, -3.71294546127319340000e+000) (48, -8.39388728141784670000e-001) (49, -2.26695561408996580000e+000) (50, -5.16570901870727540000e+000) (51, -7.31312036514282230000e-001) (52, -1.94067516326904300000e+001) (53, -1.05915689468383790000e+000) (54, -3.63523769378662110000e+000) (55, 9.90771055221557620000e-001) (43, -2.31332921981811520000e+000) (44, 4.05781316757202150000e+000) (45, 3.94154405593872070000e+000) (46, -4.21041995286941530000e-001) (47, -2.64708518981933590000e+000) (48, -2.30622339248657230000e+000) (49, -2.01281762123107910000e+000) (50, -4.61092567443847660000e+000) (51, -2.04880976676940920000e+000) (52, -2.22051677703857420000e+001) (53, -7.01500833034515380000e-001) (54, -3.37080812454223630000e+000) (55, 1.03849852085113530000e+000) (43, -2.12833210825920100000e-002) (44, 1.13946425914764400000e+000) (45, 1.11875903606414790000e+000) (46, -1.72326588630676270000e+000) (47, -6.82561111450195310000e+000) (48, -3.27419829368591310000e+000) (49, 4.98807169497013090000e-002) (50, -4.47219896316528320000e+000) (51, -2.35459423065185550000e+000) (52, -2.04913368225097660000e+001) (53, -3.24711704254150390000e+000) (54, -6.79935550689697270000e+000) (55, 1.28382956981658940000e+000) (43, -7.57085621356964110000e-001) (44, 1.13154697418212890000e+000) (45, 1.39259409904479980000e+000) (46, -2.56384825706481930000e+000) (47, -4.43861770629882810000e+000) (48, -2.17741322517395020000e+000) (49, -1.56217360496521000000e+000) (50, -5.63010168075561520000e+000) (51, -5.99209690093994140000e+000) (52, -1.76104087829589840000e+001) (53, -5.82882070541381840000e+000) (54, -4.46667003631591800000e+000) (55, 1.35331118106842040000e+000) 
