FANN_FLO_2.1
num_layers=5
learning_rate=0.700000
connection_rate=1.000000
network_type=0
learning_momentum=0.000000
training_algorithm=2
train_error_function=1
train_stop_function=0
cascade_output_change_fraction=0.010000
quickprop_decay=-0.000100
quickprop_mu=1.750000
rprop_increase_factor=1.200000
rprop_decrease_factor=0.500000
rprop_delta_min=0.000000
rprop_delta_max=50.000000
rprop_delta_zero=0.100000
cascade_output_stagnation_epochs=12
cascade_candidate_change_fraction=0.010000
cascade_candidate_stagnation_epochs=12
cascade_max_out_epochs=150
cascade_min_out_epochs=50
cascade_max_cand_epochs=150
cascade_min_cand_epochs=50
cascade_num_candidate_groups=2
bit_fail_limit=3.49999994039535520000e-001
cascade_candidate_limit=1.00000000000000000000e+003
cascade_weight_multiplier=4.00000005960464480000e-001
cascade_activation_functions_count=10
cascade_activation_functions=3 5 7 8 10 11 14 15 16 17 
cascade_activation_steepnesses_count=4
cascade_activation_steepnesses=2.50000000000000000000e-001 5.00000000000000000000e-001 7.50000000000000000000e-001 1.00000000000000000000e+000 
layer_sizes=5 21 17 13 5 
scale_included=0
neurons (num_inputs, activation_function, activation_steepness)=(0, 0, 0.00000000000000000000e+000) (0, 0, 0.00000000000000000000e+000) (0, 0, 0.00000000000000000000e+000) (0, 0, 0.00000000000000000000e+000) (0, 0, 0.00000000000000000000e+000) (5, 5, 9.99999977648258210000e-003) (5, 5, 9.99999977648258210000e-003) (5, 5, 9.99999977648258210000e-003) (5, 5, 9.99999977648258210000e-003) (5, 5, 9.99999977648258210000e-003) (5, 5, 9.99999977648258210000e-003) (5, 5, 9.99999977648258210000e-003) (5, 5, 9.99999977648258210000e-003) (5, 5, 9.99999977648258210000e-003) (5, 5, 9.99999977648258210000e-003) (5, 5, 9.99999977648258210000e-003) (5, 5, 9.99999977648258210000e-003) (5, 5, 9.99999977648258210000e-003) (5, 5, 9.99999977648258210000e-003) (5, 5, 9.99999977648258210000e-003) (5, 5, 9.99999977648258210000e-003) (5, 5, 9.99999977648258210000e-003) (5, 5, 9.99999977648258210000e-003) (5, 5, 9.99999977648258210000e-003) (5, 5, 9.99999977648258210000e-003) (0, 0, 0.00000000000000000000e+000) (21, 5, 9.99999977648258210000e-003) (21, 5, 9.99999977648258210000e-003) (21, 5, 9.99999977648258210000e-003) (21, 5, 9.99999977648258210000e-003) (21, 5, 9.99999977648258210000e-003) (21, 5, 9.99999977648258210000e-003) (21, 5, 9.99999977648258210000e-003) (21, 5, 9.99999977648258210000e-003) (21, 5, 9.99999977648258210000e-003) (21, 5, 9.99999977648258210000e-003) (21, 5, 9.99999977648258210000e-003) (21, 5, 9.99999977648258210000e-003) (21, 5, 9.99999977648258210000e-003) (21, 5, 9.99999977648258210000e-003) (21, 5, 9.99999977648258210000e-003) (21, 5, 9.99999977648258210000e-003) (0, 0, 0.00000000000000000000e+000) (17, 5, 9.99999977648258210000e-003) (17, 5, 9.99999977648258210000e-003) (17, 5, 9.99999977648258210000e-003) (17, 5, 9.99999977648258210000e-003) (17, 5, 9.99999977648258210000e-003) (17, 5, 9.99999977648258210000e-003) (17, 5, 9.99999977648258210000e-003) (17, 5, 9.99999977648258210000e-003) (17, 5, 9.99999977648258210000e-003) (17, 5, 9.99999977648258210000e-003) (17, 5, 9.99999977648258210000e-003) (17, 5, 9.99999977648258210000e-003) (0, 0, 0.00000000000000000000e+000) (13, 5, 9.99999977648258210000e-003) (13, 5, 9.99999977648258210000e-003) (13, 5, 9.99999977648258210000e-003) (13, 5, 9.99999977648258210000e-003) (0, 0, 0.00000000000000000000e+000) 
connections (connected_to_neuron, weight)=(0, 3.14385757446289060000e+001) (1, -3.83112030029296870000e+001) (2, -1.59742317199707030000e+001) (3, -1.41856317520141600000e+001) (4, 5.82962989807128910000e+000) (0, -3.71169433593750000000e+001) (1, 8.49519653320312500000e+001) (2, -7.11334838867187500000e+001) (3, 6.60074768066406250000e+001) (4, 7.98251152038574220000e+000) (0, -7.86640625000000000000e+001) (1, 1.03175476074218750000e+002) (2, 7.46717529296875000000e+001) (3, 4.95362854003906250000e+001) (4, 7.69268655776977540000e+000) (0, 4.43731269836425780000e+001) (1, 1.27057657241821290000e+001) (2, 3.63836174011230470000e+001) (3, -3.92889761924743650000e+000) (4, 7.51464462280273440000e+000) (0, -7.87496261596679690000e+001) (1, 1.03263343811035160000e+002) (2, 7.45542449951171880000e+001) (3, 4.97611503601074220000e+001) (4, 7.66159868240356450000e+000) (0, -7.88538055419921870000e+001) (1, 1.03304054260253910000e+002) (2, 7.49161453247070310000e+001) (3, 4.94718894958496090000e+001) (4, 7.65384101867675780000e+000) (0, -5.96410713195800780000e+001) (1, 8.28177337646484380000e+001) (2, -4.74659729003906250000e+001) (3, 7.06245956420898440000e+001) (4, 7.96283435821533200000e+000) (0, -7.87745132446289060000e+001) (1, 1.03321990966796870000e+002) (2, 7.46056365966796880000e+001) (3, 4.96135177612304690000e+001) (4, 7.68820285797119140000e+000) (0, 3.46723213195800780000e+001) (1, -4.13747367858886720000e+001) (2, -1.65449619293212890000e+001) (3, -1.15012063980102540000e+001) (4, 5.97477245330810550000e+000) (0, 4.45028266906738280000e+001) (1, 2.46891517639160160000e+001) (2, 3.16737823486328120000e+001) (3, -1.14617919921875000000e+001) (4, 7.51359367370605470000e+000) (0, -6.56154861450195310000e+001) (1, 4.00606269836425780000e+001) (2, 4.18885437011718750000e+002) (3, 5.04281387329101560000e+001) (4, 7.85616779327392580000e+000) (0, 2.66121730804443360000e+001) (1, -4.44626808166503910000e+001) (2, -1.94339752197265630000e+001) (3, -4.48085212707519530000e+000) (4, 7.84355974197387700000e+000) (0, -7.87809753417968750000e+001) (1, 1.03336051940917970000e+002) (2, 7.45328750610351560000e+001) (3, 4.97535667419433590000e+001) (4, 7.66366815567016600000e+000) (0, 4.20393333435058590000e+001) (1, -2.61727466583251950000e+001) (2, -2.04855308532714840000e+001) (3, -2.27159557342529300000e+001) (4, 5.83656692504882810000e+000) (0, -4.26166229248046880000e+001) (1, 1.38826583862304690000e+002) (2, -7.84439315795898440000e+001) (3, 6.75196228027343750000e+001) (4, 8.04022598266601560000e+000) (0, -7.86929855346679690000e+001) (1, 1.03195808410644530000e+002) (2, 7.46533203125000000000e+001) (3, 4.95772323608398440000e+001) (4, 7.69511795043945310000e+000) (0, -7.88102493286132810000e+001) (1, 1.03291427612304690000e+002) (2, 7.44847412109375000000e+001) (3, 4.98232269287109380000e+001) (4, 7.66463565826416020000e+000) (0, 3.36385002136230470000e+001) (1, -3.47870483398437500000e+001) (2, -1.59365396499633790000e+001) (3, -1.56607046127319340000e+001) (4, 5.82235860824584960000e+000) (0, -3.71711883544921880000e+001) (1, 8.49287261962890620000e+001) (2, -7.26787185668945310000e+001) (3, 6.72884521484375000000e+001) (4, 7.96361827850341800000e+000) (0, -5.99705390930175780000e+001) (1, 8.24405136108398440000e+001) (2, -4.99509849548339840000e+001) (3, 7.22038116455078130000e+001) (4, 7.98711585998535160000e+000) (5, 2.10042476654052730000e+001) (6, 3.06780529022216800000e+001) (7, -2.44094276428222660000e+000) (8, 2.47175903320312500000e+001) (9, -2.52291250228881840000e+000) (10, -2.46043372154235840000e+000) (11, 2.34975032806396480000e+001) (12, -2.55584597587585450000e+000) (13, 2.15059356689453130000e+001) (14, 6.02151832580566410000e+001) (15, 1.40299997329711910000e+001) (16, -5.18900203704833980000e+000) (17, -2.56130957603454590000e+000) (18, -1.45927858352661130000e+001) (19, -2.57801895141601560000e+001) (20, -2.53069424629211430000e+000) (21, -2.52449250221252440000e+000) (22, 5.32744026184082030000e+000) (23, 2.21700305938720700000e+001) (24, 2.31542835235595700000e+001) (25, 1.40986194610595700000e+001) (5, 1.37500610351562500000e+001) (6, 2.41420555114746090000e+001) (7, -1.95498287677764890000e+000) (8, 3.00100555419921880000e+001) (9, -2.01245331764221190000e+000) (10, -1.99474680423736570000e+000) (11, 1.82159252166748050000e+001) (12, -2.05286931991577150000e+000) (13, 1.67374782562255860000e+001) (14, 3.13931961059570310000e+001) (15, 1.28875818252563480000e+001) (16, -2.68282699584960940000e+001) (17, -1.97392272949218750000e+000) (18, -5.77067375183105470000e+000) (19, -1.16349420547485350000e+001) (20, -2.02890372276306150000e+000) (21, -1.96939468383789060000e+000) (22, 1.52164697647094730000e+000) (23, 2.26849651336669920000e+001) (24, 1.77014884948730470000e+001) (25, 1.44346828460693360000e+001) (5, 4.44332580566406250000e+001) (6, -1.25750579833984370000e+001) (7, 2.17917327880859380000e+001) (8, -8.90163612365722660000e+000) (9, 2.17014884948730470000e+001) (10, 2.17625808715820310000e+001) (11, -2.10433769226074220000e+000) (12, 2.18119354248046880000e+001) (13, 2.92812843322753910000e+001) (14, -1.36463842391967770000e+001) (15, 5.84812831878662110000e+000) (16, 7.00027694702148440000e+001) (17, 2.17561531066894530000e+001) (18, 5.59471893310546880000e+001) (19, 2.40651969909667970000e+001) (20, 2.18111610412597660000e+001) (21, 2.18547630310058590000e+001) (22, 4.07993888854980470000e+001) (23, -1.19880542755126950000e+001) (24, -3.45815277099609370000e+000) (25, 2.40333700180053710000e+000) (5, 3.95639762878417970000e+001) (6, -3.02761340141296390000e+000) (7, 1.55146894454956050000e+001) (8, -1.45087659358978270000e+000) (9, 1.54891462326049800000e+001) (10, 1.55692377090454100000e+001) (11, 2.46188211441040040000e+000) (12, 1.56237392425537110000e+001) (13, 2.45174236297607420000e+001) (14, -3.26552367210388180000e+000) (15, 7.64495658874511720000e+000) (16, 2.53832721710205080000e+001) (17, 1.55718221664428710000e+001) (18, 9.47405242919921880000e+001) (19, 2.45784282684326170000e+001) (20, 1.56515102386474610000e+001) (21, 1.55151786804199220000e+001) (22, 4.46161003112792970000e+001) (23, -2.22712087631225590000e+000) (24, 3.21591234207153320000e+000) (25, 4.49593782424926760000e+000) (5, 4.46373367309570310000e+001) (6, -1.24972715377807620000e+001) (7, 2.17493915557861330000e+001) (8, -5.75438928604125980000e+000) (9, 2.17237339019775390000e+001) (10, 2.18829212188720700000e+001) (11, -4.41769301891326900000e-001) (12, 2.17152137756347660000e+001) (13, 2.99656162261962890000e+001) (14, -8.48556709289550780000e+000) (15, 5.96157360076904300000e+000) (16, 7.01059646606445310000e+001) (17, 2.17378025054931640000e+001) (18, 5.54929847717285160000e+001) (19, 1.82258644104003910000e+001) (20, 2.17919330596923830000e+001) (21, 2.18245220184326170000e+001) (22, 4.02059097290039060000e+001) (23, -1.16935319900512700000e+001) (24, -2.86388969421386720000e+000) (25, 2.39678573608398440000e+000) (5, 4.40208206176757810000e+001) (6, -7.36261129379272460000e+000) (7, 2.13905410766601560000e+001) (8, -5.18992614746093750000e+000) (9, 2.12612762451171880000e+001) (10, 2.13049755096435550000e+001) (11, -2.52158021926879880000e+000) (12, 2.13793697357177730000e+001) (13, 2.84339427947998050000e+001) (14, -9.92279338836669920000e+000) (15, 5.77932691574096680000e+000) (16, 7.80018234252929690000e+001) (17, 2.14405651092529300000e+001) (18, 5.85256195068359380000e+001) (19, 2.20979270935058590000e+001) (20, 2.13224029541015630000e+001) (21, 2.12763385772705080000e+001) (22, 4.13738059997558590000e+001) (23, -6.72865772247314450000e+000) (24, -1.23676717281341550000e+000) (25, 2.36290597915649410000e+000) (5, 2.01717338562011720000e+001) (6, -9.24127280712127690000e-001) (7, 3.58535909652709960000e+000) (8, -1.96315419673919680000e+000) (9, 3.64213132858276370000e+000) (10, 3.49151945114135740000e+000) (11, 2.64909654855728150000e-001) (12, 3.63211083412170410000e+000) (13, 1.61259136199951170000e+001) (14, -8.80095577239990230000e+000) (15, 6.03857707977294920000e+000) (16, -4.74760055541992190000e+000) (17, 3.60159802436828610000e+000) (18, 1.02440673828125000000e+002) (19, 3.70554237365722660000e+001) (20, 3.53694939613342290000e+000) (21, 3.53522872924804690000e+000) (22, 3.40207824707031250000e+001) (23, -6.15576803684234620000e-001) (24, 3.22945564985275270000e-001) (25, 1.56243550777435300000e+000) (5, 1.85294303894042970000e+001) (6, 2.51754379272460940000e+001) (7, -2.04054212570190430000e+000) (8, 2.96831016540527340000e+001) (9, -2.07127833366394040000e+000) (10, -2.12207412719726560000e+000) (11, 2.41296329498291020000e+001) (12, -2.02198863029479980000e+000) (13, 1.67155323028564450000e+001) (14, 3.97886238098144530000e+001) (15, 1.27109384536743160000e+001) (16, -2.03877239227294920000e+001) (17, -1.95217156410217290000e+000) (18, 2.37228512763977050000e+000) (19, -1.98667354583740230000e+001) (20, -2.02094388008117680000e+000) (21, -2.11958074569702150000e+000) (22, 1.15068435668945310000e+000) (23, 2.45609149932861330000e+001) (24, 2.41649761199951170000e+001) (25, 1.44187717437744140000e+001) (5, 2.08452148437500000000e+001) (6, 2.28919715881347660000e+001) (7, -2.68051934242248540000e+000) (8, 2.57714958190917970000e+001) (9, -2.72078728675842290000e+000) (10, -2.63778686523437500000e+000) (11, 1.82655925750732420000e+001) (12, -2.74731230735778810000e+000) (13, 2.03185195922851560000e+001) (14, 4.20921821594238280000e+001) (15, 1.41184082031250000000e+001) (16, -2.81433925628662110000e+001) (17, -2.65033197402954100000e+000) (18, -1.42726964950561520000e+001) (19, -9.06780910491943360000e+000) (20, -2.68281316757202150000e+000) (21, -2.73332333564758300000e+000) (22, 5.01716279983520510000e+000) (23, 2.25385475158691410000e+001) (24, 9.66405868530273440000e+000) (25, 8.31877613067626950000e+000) (5, 1.46167154312133790000e+001) (6, 2.45026111602783200000e+001) (7, -2.09941720962524410000e+000) (8, 3.05029125213623050000e+001) (9, -2.09508180618286130000e+000) (10, -2.14128375053405760000e+000) (11, 2.17529869079589840000e+001) (12, -2.09774041175842290000e+000) (13, 1.69179992675781250000e+001) (14, 3.18611373901367190000e+001) (15, 1.28490390777587890000e+001) (16, -2.72960605621337890000e+001) (17, -2.07363462448120120000e+000) (18, -6.12765026092529300000e+000) (19, -2.04481124877929690000e+001) (20, -2.00647425651550290000e+000) (21, -2.11758136749267580000e+000) (22, 1.67105245590209960000e+000) (23, 2.31072006225585940000e+001) (24, 1.80459308624267580000e+001) (25, 1.44277753829956050000e+001) (5, 1.80161724090576170000e+001) (6, 2.51353378295898440000e+001) (7, -2.06180930137634280000e+000) (8, 2.95438842773437500000e+001) (9, -2.09052205085754390000e+000) (10, -1.94675385951995850000e+000) (11, 1.64138126373291020000e+001) (12, -2.06308913230896000000e+000) (13, 1.69077796936035160000e+001) (14, 3.19628124237060550000e+001) (15, 1.28167200088500980000e+001) (16, -3.73033370971679690000e+001) (17, -2.09673237800598140000e+000) (18, 5.89599704742431640000e+000) (19, 2.81021595001220700000e+000) (20, -2.04895234107971190000e+000) (21, -2.03733420372009280000e+000) (22, -1.16040360927581790000e+000) (23, 2.47716217041015630000e+001) (24, 1.34053487777709960000e+001) (25, 8.61897945404052730000e+000) (5, 2.03243999481201170000e+001) (6, -5.81129133701324460000e-001) (7, 3.50670599937438960000e+000) (8, -6.25179946422576900000e-001) (9, 3.50568246841430660000e+000) (10, 3.63766479492187500000e+000) (11, 6.03178083896636960000e-001) (12, 3.59539771080017090000e+000) (13, 1.61591434478759770000e+001) (14, -7.08679723739624020000e+000) (15, 5.97093009948730470000e+000) (16, -2.96164455413818360000e+001) (17, 3.62665796279907230000e+000) (18, 1.27969329833984370000e+002) (19, 3.16601161956787110000e+001) (20, 3.64748477935791020000e+000) (21, 3.63821291923522950000e+000) (22, 3.51963081359863280000e+001) (23, -3.69255572557449340000e-001) (24, 4.69449192285537720000e-001) (25, 1.54378378391265870000e+000) (5, 1.45840539932250980000e+001) (6, 2.55600929260253910000e+001) (7, -2.45921897888183590000e+000) (8, 3.07538623809814450000e+001) (9, -2.33727097511291500000e+000) (10, -2.29327011108398440000e+000) (11, 2.41329269409179690000e+001) (12, -2.46005582809448240000e+000) (13, 1.58258829116821290000e+001) (14, 5.01077575683593750000e+001) (15, 1.26412382125854490000e+001) (16, -1.68875789642333980000e+001) (17, -2.38021540641784670000e+000) (18, 5.70189118385314940000e-001) (19, -3.08835353851318360000e+001) (20, -2.37234067916870120000e+000) (21, -2.29639601707458500000e+000) (22, 2.16220879554748540000e+000) (23, 2.45568866729736330000e+001) (24, 2.42168769836425780000e+001) (25, 1.46550369262695310000e+001) (5, 2.07792644500732420000e+001) (6, 2.28179340362548830000e+001) (7, -2.72927546501159670000e+000) (8, 2.54409103393554690000e+001) (9, -2.69144701957702640000e+000) (10, -2.72583055496215820000e+000) (11, 1.80149993896484380000e+001) (12, -2.64606595039367680000e+000) (13, 1.98276538848876950000e+001) (14, 4.21096305847167970000e+001) (15, 1.41169605255126950000e+001) (16, -3.59809494018554690000e+001) (17, -2.56384444236755370000e+000) (18, -9.18486785888671870000e+000) (19, -1.25264558792114260000e+001) (20, -2.72334575653076170000e+000) (21, -2.62888097763061520000e+000) (22, 5.45023775100708010000e+000) (23, 2.18553161621093750000e+001) (24, 1.74216365814208980000e+001) (25, 1.41005096435546870000e+001) (5, 3.73246231079101560000e+001) (6, -3.03973960876464840000e+000) (7, 1.55854835510253910000e+001) (8, -1.41530859470367430000e+000) (9, 1.55016937255859370000e+001) (10, 1.56256227493286130000e+001) (11, -3.46288830041885380000e-001) (12, 1.55393409729003910000e+001) (13, 2.43696651458740230000e+001) (14, -1.11731827259063720000e+000) (15, 7.72426128387451170000e+000) (16, 3.46769752502441410000e+001) (17, 1.56561193466186520000e+001) (18, 7.93709564208984380000e+001) (19, 2.24323883056640630000e+001) (20, 1.56647329330444340000e+001) (21, 1.55512771606445310000e+001) (22, 4.44563713073730470000e+001) (23, -2.74682736396789550000e+000) (24, 1.60189941525459290000e-001) (25, 4.48378610610961910000e+000) (5, 1.83454132080078130000e+001) (6, 2.51932830810546880000e+001) (7, -2.04968643188476560000e+000) (8, 2.94153823852539060000e+001) (9, -2.00641775131225590000e+000) (10, -2.10403752326965330000e+000) (11, 1.64913768768310550000e+001) (12, -2.12868309020996090000e+000) (13, 1.69855976104736330000e+001) (14, 3.17997932434082030000e+001) (15, 1.26611938476562500000e+001) (16, -1.64531116485595700000e+001) (17, -1.95202350616455080000e+000) (18, 5.20461261272430420000e-001) (19, 2.73266983032226560000e+000) (20, -2.14141106605529790000e+000) (21, -2.06272339820861820000e+000) (22, 5.14460325241088870000e-001) (23, 2.47256317138671880000e+001) (24, 1.34112386703491210000e+001) (25, 8.65351295471191410000e+000) (26, -1.43773746490478520000e+001) (27, -1.85127792358398440000e+001) (28, 2.96473064422607420000e+001) (29, 1.90518493652343750000e+001) (30, 2.95412006378173830000e+001) (31, 2.95722675323486330000e+001) (32, 1.53946655273437500000e+002) (33, -1.87170925140380860000e+001) (34, -1.49903583526611330000e+001) (35, -1.89075813293457030000e+001) (36, -1.19298763275146480000e+001) (37, 3.38900260925292970000e+001) (38, -6.55357742309570310000e+001) (39, -1.32265377044677730000e+001) (40, 1.90731277465820310000e+001) (41, -1.80895500183105470000e+001) (42, -4.35159236192703250000e-001) (26, 2.64954795837402340000e+001) (27, 2.67798557281494140000e+001) (28, -1.68730964660644530000e+001) (29, -6.81787878274917600000e-002) (30, -1.56084737777709960000e+001) (31, -2.00035686492919920000e+001) (32, -9.20008468627929690000e+001) (33, 2.71836566925048830000e+001) (34, 2.64707393646240230000e+001) (35, 2.74355278015136720000e+001) (36, 2.65836391448974610000e+001) (37, -3.15261840820312500000e+001) (38, 1.27017028808593750000e+002) (39, 2.37495250701904300000e+001) (40, -2.14255109429359440000e-001) (41, 2.61438865661621090000e+001) (42, 9.86193752288818360000e+000) (26, 3.24053993225097660000e+001) (27, 2.70609035491943360000e+001) (28, -1.49813375473022460000e+001) (29, 4.27687644958496090000e-001) (30, -1.48905448913574220000e+001) (31, -1.49918603897094730000e+001) (32, -7.62286987304687500000e+001) (33, 2.74364643096923830000e+001) (34, 3.25478172302246090000e+001) (35, 2.76321086883544920000e+001) (36, 2.69653091430664060000e+001) (37, -1.45021743774414060000e+001) (38, 1.52402694702148440000e+002) (39, 3.22417106628417970000e+001) (40, 3.72289121150970460000e-001) (41, 2.65878372192382810000e+001) (42, 1.43548059463500980000e+001) (26, -2.40108451843261720000e+001) (27, -1.75240631103515630000e+001) (28, 2.41666679382324220000e+001) (29, 2.16552219390869140000e+001) (30, 2.42048091888427730000e+001) (31, 2.71057891845703130000e+001) (32, 9.34361648559570310000e+001) (33, -1.79100170135498050000e+001) (34, -1.19026947021484380000e+001) (35, -1.78203907012939450000e+001) (36, -1.07999200820922850000e+001) (37, 4.11185455322265630000e+001) (38, -1.27972724914550780000e+002) (39, -1.16140232086181640000e+001) (40, 2.12509174346923830000e+001) (41, -1.73154659271240230000e+001) (42, -2.37379800528287890000e-002) (26, -9.01353073120117190000e+000) (27, -1.22731332778930660000e+001) (28, 3.46526451110839840000e+001) (29, 2.93647384643554690000e+001) (30, 3.45883483886718750000e+001) (31, 4.85717010498046880000e+001) (32, 1.54129669189453120000e+002) (33, -1.22307167053222660000e+001) (34, -8.91890239715576170000e+000) (35, -1.26658163070678710000e+001) (36, -1.21024551391601560000e+001) (37, 3.82780570983886720000e+001) (38, -5.27873840332031250000e+001) (39, -8.78481197357177730000e+000) (40, 2.95015983581542970000e+001) (41, -1.17116394042968750000e+001) (42, 3.06941103190183640000e-002) (26, -1.23175096511840820000e+001) (27, -1.89830207824707030000e+001) (28, 2.49113693237304690000e+001) (29, 2.45168018341064450000e+001) (30, 2.47225227355957030000e+001) (31, 2.47202911376953130000e+001) (32, 1.31720672607421870000e+002) (33, -1.92813796997070310000e+001) (34, -1.09492998123168950000e+001) (35, -1.93566780090332030000e+001) (36, -1.88874359130859380000e+001) (37, 4.34744262695312500000e+001) (38, -8.21190185546875000000e+001) (39, -1.07477483749389650000e+001) (40, 2.43008441925048830000e+001) (41, -1.86085186004638670000e+001) (42, 2.19170704483985900000e-001) (26, -1.63348083496093750000e+001) (27, -1.92455635070800780000e+001) (28, 3.31486701965332030000e+001) (29, 1.90623912811279300000e+001) (30, 3.30780143737792970000e+001) (31, 3.31201782226562500000e+001) (32, 7.75234985351562500000e+001) (33, -2.04951267242431640000e+001) (34, -1.62987880706787110000e+001) (35, -2.08523616790771480000e+001) (36, -2.00984497070312500000e+001) (37, -2.04173612594604490000e+000) (38, -1.60412551879882810000e+002) (39, -1.62592983245849610000e+001) (40, 1.84980373382568360000e+001) (41, -2.01309585571289060000e+001) (42, -6.88296034932136540000e-002) (26, -1.22571563720703130000e+001) (27, -1.00199966430664060000e+001) (28, 4.05475349426269530000e+001) (29, 1.09505405426025390000e+001) (30, 4.03623924255371090000e+001) (31, 4.03869934082031250000e+001) (32, 1.61028732299804690000e+002) (33, -1.00915613174438480000e+001) (34, -1.08504056930541990000e+001) (35, -1.02672319412231450000e+001) (36, -1.00109043121337890000e+001) (37, 4.52200622558593750000e+001) (38, -9.50091552734375000000e+001) (39, -1.07824764251708980000e+001) (40, 1.06630325317382810000e+001) (41, -9.92478370666503910000e+000) (42, 7.83715152740478520000e+000) (26, -1.52120952606201170000e+001) (27, -1.22021389007568360000e+001) (28, 3.39153900146484370000e+001) (29, 3.30410919189453130000e+001) (30, 3.38954124450683590000e+001) (31, 3.48801612854003910000e+001) (32, 1.66668121337890620000e+002) (33, -1.28350687026977540000e+001) (34, -1.52120447158813480000e+001) (35, -1.26030855178833010000e+001) (36, -1.26652822494506840000e+001) (37, 2.57219066619873050000e+001) (38, -4.15660362243652340000e+001) (39, -1.50797567367553710000e+001) (40, 3.30385894775390630000e+001) (41, -1.21290626525878910000e+001) (42, -1.31366580724716190000e-001) (26, -1.29980964660644530000e+001) (27, -9.12951946258544920000e+000) (28, 2.71792774200439450000e+001) (29, 1.74777145385742190000e+001) (30, 2.11932411193847660000e+001) (31, 2.52139186859130860000e+001) (32, 2.01405334472656250000e+002) (33, -9.09737777709960940000e+000) (34, -1.25233545303344730000e+001) (35, -9.21159744262695310000e+000) (36, -8.91137409210205080000e+000) (37, 6.76085357666015630000e+001) (38, -5.17818946838378910000e+001) (39, -1.18874797821044920000e+001) (40, 1.74251976013183590000e+001) (41, -8.93221092224121090000e+000) (42, 1.37480795383453370000e+000) (26, -6.79357767105102540000e+000) (27, -1.73929386138916020000e+001) (28, 2.75468616485595700000e+001) (29, 1.91363182067871090000e+001) (30, 2.74838981628417970000e+001) (31, 3.47479820251464840000e+001) (32, 1.39584167480468750000e+002) (33, -1.77854862213134770000e+001) (34, -6.75729990005493160000e+000) (35, -1.79957313537597660000e+001) (36, -1.72656593322753910000e+001) (37, 5.07962722778320310000e+001) (38, -8.11148147583007810000e+001) (39, -6.56762695312500000000e+000) (40, 1.90305137634277340000e+001) (41, -1.70701713562011720000e+001) (42, 1.86293855309486390000e-001) (26, -1.08244562149047850000e+001) (27, -1.76939048767089840000e+001) (28, 2.94638366699218750000e+001) (29, 2.70638809204101560000e+001) (30, 2.90191040039062500000e+001) (31, 3.70543708801269530000e+001) (32, 1.86293090820312500000e+002) (33, -1.07556266784667970000e+001) (34, -1.08299608230590820000e+001) (35, -1.81114578247070310000e+001) (36, -1.05284385681152340000e+001) (37, 4.58296012878417970000e+001) (38, -2.48985309600830080000e+001) (39, -1.06881866455078120000e+001) (40, 2.42354793548583980000e+001) (41, -1.74396095275878910000e+001) (42, 6.03004470467567440000e-002) (43, -1.44802844238281250000e+003) (44, 1.49851611328125000000e+003) (45, 1.50000000000000000000e+003) (46, -1.35876672363281250000e+003) (47, -1.49648229980468750000e+003) (48, -1.49556018066406250000e+003) (49, -1.29528515625000000000e+003) (50, -1.49624035644531250000e+003) (51, -1.49597607421875000000e+003) (52, -1.49446057128906250000e+003) (53, -1.43480651855468750000e+003) (54, -1.49666003417968750000e+003) (55, 1.49726879882812500000e+003) (43, -1.47858483886718750000e+003) (44, 1.50000000000000000000e+003) (45, 1.50000000000000000000e+003) (46, -1.27433898925781250000e+003) (47, -1.49760034179687500000e+003) (48, -1.48811596679687500000e+003) (49, -1.36463366699218750000e+003) (50, -1.49118762207031250000e+003) (51, -1.49716809082031250000e+003) (52, -1.49774060058593750000e+003) (53, -1.46214782714843750000e+003) (54, -1.49773449707031250000e+003) (55, 1.49780236816406250000e+003) (43, -1.47410717773437500000e+003) (44, 1.50000000000000000000e+003) (45, 1.50000000000000000000e+003) (46, -1.36957165527343750000e+003) (47, -1.49241918945312500000e+003) (48, -1.49672473144531250000e+003) (49, -1.26218920898437500000e+003) (50, -1.47439624023437500000e+003) (51, -1.47435437011718750000e+003) (52, -1.49257971191406250000e+003) (53, -1.47419604492187500000e+003) (54, -1.49525073242187500000e+003) (55, 1.49712329101562500000e+003) (43, -1.48198071289062500000e+003) (44, 1.47663745117187500000e+003) (45, 1.49584448242187500000e+003) (46, -1.25414245605468750000e+003) (47, -1.49764868164062500000e+003) (48, -1.48631396484375000000e+003) (49, -1.41729772949218750000e+003) (50, -1.48030664062500000000e+003) (51, -1.49432824707031250000e+003) (52, -1.49708825683593750000e+003) (53, -1.48017529296875000000e+003) (54, -1.49749157714843750000e+003) (55, 1.50000000000000000000e+003) 
