FANN_FLO_2.1
num_layers=5
learning_rate=0.700000
connection_rate=1.000000
network_type=0
learning_momentum=0.000000
training_algorithm=2
train_error_function=1
train_stop_function=0
cascade_output_change_fraction=0.010000
quickprop_decay=-0.000100
quickprop_mu=1.750000
rprop_increase_factor=1.200000
rprop_decrease_factor=0.500000
rprop_delta_min=0.000000
rprop_delta_max=50.000000
rprop_delta_zero=0.100000
cascade_output_stagnation_epochs=12
cascade_candidate_change_fraction=0.010000
cascade_candidate_stagnation_epochs=12
cascade_max_out_epochs=150
cascade_min_out_epochs=50
cascade_max_cand_epochs=150
cascade_min_cand_epochs=50
cascade_num_candidate_groups=2
bit_fail_limit=3.49999994039535520000e-001
cascade_candidate_limit=1.00000000000000000000e+003
cascade_weight_multiplier=4.00000005960464480000e-001
cascade_activation_functions_count=10
cascade_activation_functions=3 5 7 8 10 11 14 15 16 17 
cascade_activation_steepnesses_count=4
cascade_activation_steepnesses=2.50000000000000000000e-001 5.00000000000000000000e-001 7.50000000000000000000e-001 1.00000000000000000000e+000 
layer_sizes=5 21 17 13 5 
scale_included=0
neurons (num_inputs, activation_function, activation_steepness)=(0, 0, 0.00000000000000000000e+000) (0, 0, 0.00000000000000000000e+000) (0, 0, 0.00000000000000000000e+000) (0, 0, 0.00000000000000000000e+000) (0, 0, 0.00000000000000000000e+000) (5, 5, 9.99999977648258210000e-003) (5, 5, 9.99999977648258210000e-003) (5, 5, 9.99999977648258210000e-003) (5, 5, 9.99999977648258210000e-003) (5, 5, 9.99999977648258210000e-003) (5, 5, 9.99999977648258210000e-003) (5, 5, 9.99999977648258210000e-003) (5, 5, 9.99999977648258210000e-003) (5, 5, 9.99999977648258210000e-003) (5, 5, 9.99999977648258210000e-003) (5, 5, 9.99999977648258210000e-003) (5, 5, 9.99999977648258210000e-003) (5, 5, 9.99999977648258210000e-003) (5, 5, 9.99999977648258210000e-003) (5, 5, 9.99999977648258210000e-003) (5, 5, 9.99999977648258210000e-003) (5, 5, 9.99999977648258210000e-003) (5, 5, 9.99999977648258210000e-003) (5, 5, 9.99999977648258210000e-003) (5, 5, 9.99999977648258210000e-003) (0, 0, 0.00000000000000000000e+000) (21, 5, 9.99999977648258210000e-003) (21, 5, 9.99999977648258210000e-003) (21, 5, 9.99999977648258210000e-003) (21, 5, 9.99999977648258210000e-003) (21, 5, 9.99999977648258210000e-003) (21, 5, 9.99999977648258210000e-003) (21, 5, 9.99999977648258210000e-003) (21, 5, 9.99999977648258210000e-003) (21, 5, 9.99999977648258210000e-003) (21, 5, 9.99999977648258210000e-003) (21, 5, 9.99999977648258210000e-003) (21, 5, 9.99999977648258210000e-003) (21, 5, 9.99999977648258210000e-003) (21, 5, 9.99999977648258210000e-003) (21, 5, 9.99999977648258210000e-003) (21, 5, 9.99999977648258210000e-003) (0, 0, 0.00000000000000000000e+000) (17, 5, 9.99999977648258210000e-003) (17, 5, 9.99999977648258210000e-003) (17, 5, 9.99999977648258210000e-003) (17, 5, 9.99999977648258210000e-003) (17, 5, 9.99999977648258210000e-003) (17, 5, 9.99999977648258210000e-003) (17, 5, 9.99999977648258210000e-003) (17, 5, 9.99999977648258210000e-003) (17, 5, 9.99999977648258210000e-003) (17, 5, 9.99999977648258210000e-003) (17, 5, 9.99999977648258210000e-003) (17, 5, 9.99999977648258210000e-003) (0, 0, 0.00000000000000000000e+000) (13, 5, 9.99999977648258210000e-003) (13, 5, 9.99999977648258210000e-003) (13, 5, 9.99999977648258210000e-003) (13, 5, 9.99999977648258210000e-003) (0, 0, 0.00000000000000000000e+000) 
connections (connected_to_neuron, weight)=(0, 3.29988212585449220000e+001) (1, -3.80880584716796880000e+001) (2, -1.51290102005004880000e+001) (3, -1.23015518188476560000e+001) (4, 7.51218605041503910000e+000) (0, -3.29491157531738280000e+001) (1, 9.00845718383789060000e+001) (2, -6.64051971435546880000e+001) (3, 7.01118240356445310000e+001) (4, 1.20273475646972660000e+001) (0, -7.70446090698242190000e+001) (1, 1.03581893920898440000e+002) (2, 7.56386642456054690000e+001) (3, 5.12675323486328120000e+001) (4, 9.50317764282226560000e+000) (0, 4.85369606018066410000e+001) (1, 1.77605609893798830000e+001) (2, 4.11004104614257810000e+001) (3, 1.32173076272010800000e-001) (4, 1.15590143203735350000e+001) (0, -7.71305770874023440000e+001) (1, 1.03668182373046870000e+002) (2, 7.55209197998046870000e+001) (3, 5.14923973083496090000e+001) (4, 9.47214603424072270000e+000) (0, -7.72343521118164060000e+001) (1, 1.03710472106933590000e+002) (2, 7.58830566406250000000e+001) (3, 5.12031364440917970000e+001) (4, 9.46440505981445310000e+000) (0, -5.54842910766601560000e+001) (1, 8.79071655273437500000e+001) (2, -4.27569503784179690000e+001) (3, 7.47083435058593750000e+001) (4, 1.20060606002807620000e+001) (0, -7.71550598144531250000e+001) (1, 1.03728408813476560000e+002) (2, 7.55725479125976560000e+001) (3, 5.13447647094726560000e+001) (4, 9.49870014190673830000e+000) (0, 3.61745452880859370000e+001) (1, -4.12414131164550780000e+001) (2, -1.58497343063354490000e+001) (3, -9.21656990051269530000e+000) (4, 7.64073944091796870000e+000) (0, 4.86756134033203130000e+001) (1, 2.97540073394775390000e+001) (2, 3.63968009948730470000e+001) (3, -7.39247035980224610000e+000) (4, 1.15595855712890630000e+001) (0, -6.50939483642578130000e+001) (1, 4.46764678955078130000e+001) (2, 4.23291809082031250000e+002) (3, 1.90932235717773440000e+001) (4, 1.18665885925292970000e+001) (0, 2.82017211914062500000e+001) (1, -4.39309539794921880000e+001) (2, -1.84753170013427730000e+001) (3, -2.79076933860778810000e+000) (4, 9.65491676330566410000e+000) (0, -7.71615219116210940000e+001) (1, 1.03740890502929690000e+002) (2, 7.54997863769531250000e+001) (3, 5.14848136901855470000e+001) (4, 9.47421169281005860000e+000) (0, 4.36390228271484380000e+001) (1, -2.59850902557373050000e+001) (2, -1.96253433227539060000e+001) (3, -2.10307254791259770000e+001) (4, 7.52308845520019530000e+000) (0, -4.09792594909667970000e+001) (1, 1.39271530151367190000e+002) (2, -7.75189361572265630000e+001) (3, 6.91865997314453120000e+001) (4, 9.84266185760498050000e+000) (0, -7.70735321044921880000e+001) (1, 1.03602226257324220000e+002) (2, 7.56202316284179690000e+001) (3, 5.13084793090820310000e+001) (4, 9.50560665130615230000e+000) (0, -7.71907958984375000000e+001) (1, 1.03697845458984370000e+002) (2, 7.54516525268554690000e+001) (3, 5.15544738769531250000e+001) (4, 9.47517681121826170000e+000) (0, 3.52426528930664060000e+001) (1, -3.45046501159667970000e+001) (2, -1.50370807647705080000e+001) (3, -1.39346332550048830000e+001) (4, 7.51670026779174800000e+000) (0, -3.30035247802734370000e+001) (1, 9.00582885742187500000e+001) (2, -6.79507522583007810000e+001) (3, 7.13921585083007810000e+001) (4, 1.20079956054687500000e+001) (0, -5.58137588500976560000e+001) (1, 8.75304260253906250000e+001) (2, -4.52413063049316410000e+001) (3, 7.62959976196289060000e+001) (4, 1.20303268432617190000e+001) (5, 2.49097194671630860000e+001) (6, 3.49170646667480470000e+001) (7, 1.88348281383514400000e+000) (8, 2.89098663330078130000e+001) (9, 1.80175030231475830000e+000) (10, 1.86433398723602290000e+000) (11, 2.77002105712890630000e+001) (12, 1.76868546009063720000e+000) (13, 2.54239902496337890000e+001) (14, 6.44953994750976560000e+001) (15, 1.83681678771972660000e+001) (16, -1.18413555622100830000e+000) (17, 1.76339137554168700000e+000) (18, -1.05547008514404300000e+001) (19, -2.15438518524169920000e+001) (20, 1.79381334781646730000e+000) (21, 1.80000889301300050000e+000) (22, 9.32862854003906250000e+000) (23, 2.63556346893310550000e+001) (24, 2.73554954528808590000e+001) (25, 1.81203155517578120000e+001) (5, 1.76972408294677730000e+001) (6, 2.83298377990722660000e+001) (7, 2.37115144729614260000e+000) (8, 3.42449722290039060000e+001) (9, 2.31379485130310060000e+000) (10, 2.33150720596313480000e+000) (11, 2.24228115081787110000e+001) (12, 2.27321553230285640000e+000) (13, 2.06739826202392580000e+001) (14, 3.56669311523437500000e+001) (15, 1.72466850280761720000e+001) (16, -2.28538284301757810000e+001) (17, 2.35235381126403810000e+000) (18, -1.80847620964050290000e+000) (19, -7.35363435745239260000e+000) (20, 2.29718089103698730000e+000) (21, 2.35688710212707520000e+000) (22, 5.53068637847900390000e+000) (23, 2.68714694976806640000e+001) (24, 2.19057273864746090000e+001) (25, 1.84562568664550780000e+001) (5, 4.63605537414550780000e+001) (6, -1.09578294754028320000e+001) (7, 2.32561511993408200000e+001) (8, -7.29316663742065430000e+000) (9, 2.31652088165283200000e+001) (10, 2.32255496978759770000e+001) (11, -5.09614050388336180000e-001) (12, 2.32763538360595700000e+001) (13, 3.11103839874267580000e+001) (14, -1.20498762130737300000e+001) (15, 7.27522897720336910000e+000) (16, 7.18535690307617190000e+001) (17, 2.32198734283447270000e+001) (18, 5.79020156860351560000e+001) (19, 2.55893726348876950000e+001) (20, 2.32755794525146480000e+001) (21, 2.33187122344970700000e+001) (22, 4.26899757385253910000e+001) (23, -1.03678407669067380000e+001) (24, -1.85615980625152590000e+000) (25, 4.21252489089965820000e+000) (5, 4.14755172729492190000e+001) (6, -1.41403698921203610000e+000) (7, 1.69813518524169920000e+001) (8, 1.51972040534019470000e-001) (9, 1.69562778472900390000e+001) (10, 1.70343170166015620000e+001) (11, 4.05624008178710940000e+000) (12, 1.70881328582763670000e+001) (13, 2.64146041870117190000e+001) (14, -1.67311680316925050000e+000) (15, 9.05709838867187500000e+000) (16, 2.72532024383544920000e+001) (17, 1.70368690490722660000e+001) (18, 9.66580963134765630000e+001) (19, 2.60979919433593750000e+001) (20, 1.71157836914062500000e+001) (21, 1.69816055297851560000e+001) (22, 4.65775070190429690000e+001) (23, -6.15106821060180660000e-001) (24, 4.81121587753295900000e+000) (25, 6.30142641067504880000e+000) (5, 4.65664138793945310000e+001) (6, -1.08791522979736330000e+001) (7, 2.32138099670410160000e+001) (8, -4.14496326446533200000e+000) (9, 2.31879234313964840000e+001) (10, 2.33463592529296880000e+001) (11, 1.15507495403289790000e+000) (12, 2.31796321868896480000e+001) (13, 3.17958526611328130000e+001) (14, -6.88693571090698240000e+000) (15, 7.39034843444824220000e+000) (16, 7.19576187133789060000e+001) (17, 2.32019920349121090000e+001) (18, 5.74491767883300780000e+001) (19, 1.97502689361572270000e+001) (20, 2.32563514709472660000e+001) (21, 2.32889404296875000000e+001) (22, 4.20980415344238280000e+001) (23, -1.00719823837280270000e+001) (24, -1.26391804218292240000e+000) (25, 4.20626592636108400000e+000) (5, 4.59533500671386720000e+001) (6, -5.74069309234619140000e+000) (7, 2.28554172515869140000e+001) (8, -3.57832217216491700000e+000) (9, 2.27256946563720700000e+001) (10, 2.27689247131347660000e+001) (11, -9.24180030822753910000e-001) (12, 2.28442459106445310000e+001) (13, 3.02668914794921880000e+001) (14, -8.32450389862060550000e+000) (15, 7.21191072463989260000e+000) (16, 7.98547668457031250000e+001) (17, 2.29049835205078130000e+001) (18, 6.04826126098632810000e+001) (19, 2.36230182647705080000e+001) (20, 2.27872791290283200000e+001) (21, 2.27412147521972660000e+001) (22, 4.32673187255859380000e+001) (23, -5.10375881195068360000e+000) (24, 3.64058166742324830000e-001) (25, 4.17582607269287110000e+000) (5, 2.20518760681152340000e+001) (6, 6.72094523906707760000e-001) (7, 5.06656837463378910000e+000) (8, -3.76116007566452030000e-001) (9, 5.12287950515747070000e+000) (10, 4.97160577774047850000e+000) (11, 1.84352695941925050000e+000) (12, 5.11308956146240230000e+000) (13, 1.80185947418212890000e+001) (14, -7.22450828552246090000e+000) (15, 7.42393493652343750000e+000) (16, -2.84142827987670900000e+000) (17, 5.08234643936157230000e+000) (18, 1.04343597412109370000e+002) (19, 3.86502494812011720000e+001) (20, 5.01818895339965820000e+000) (21, 5.01624059677124020000e+000) (22, 3.59798202514648440000e+001) (23, 9.83764886856079100000e-001) (24, 1.90326762199401860000e+000) (25, 3.23708868026733400000e+000) (5, 2.24486808776855470000e+001) (6, 2.93635940551757810000e+001) (7, 2.28521561622619630000e+000) (8, 3.39111976623535160000e+001) (9, 2.25464344024658200000e+000) (10, 2.20384860038757320000e+000) (11, 2.83357715606689450000e+001) (12, 2.30376982688903810000e+000) (13, 2.06495876312255860000e+001) (14, 4.40738677978515630000e+001) (15, 1.70691204071044920000e+001) (16, -1.64162235260009770000e+001) (17, 2.37380194664001460000e+000) (18, 6.41412305831909180000e+000) (19, -1.56237239837646480000e+001) (20, 2.30481505393981930000e+000) (21, 2.20634150505065920000e+000) (22, 5.15690374374389650000e+000) (23, 2.87470455169677730000e+001) (24, 2.83677196502685550000e+001) (25, 1.84389114379882810000e+001) (5, 2.47533493041992190000e+001) (6, 2.70792751312255860000e+001) (7, 1.64495503902435300000e+000) (8, 2.99637718200683590000e+001) (9, 1.60505318641662600000e+000) (10, 1.68797206878662110000e+000) (11, 2.24694519042968750000e+001) (12, 1.57823073863983150000e+000) (13, 2.42466793060302730000e+001) (14, 4.63743438720703130000e+001) (15, 1.84594554901123050000e+001) (16, -2.41752357482910160000e+001) (17, 1.67543900012969970000e+000) (18, -1.02328834533691410000e+001) (19, -4.78692245483398440000e+000) (20, 1.64266359806060790000e+000) (21, 1.59253168106079100000e+000) (22, 9.02081394195556640000e+000) (23, 2.67238941192626950000e+001) (24, 1.39075822830200200000e+001) (25, 1.23631324768066410000e+001) (5, 1.85590820312500000000e+001) (6, 2.86915149688720700000e+001) (7, 2.22699213027954100000e+000) (8, 3.47485771179199220000e+001) (9, 2.23173165321350100000e+000) (10, 2.18610167503356930000e+000) (11, 2.59598731994628910000e+001) (12, 2.22907257080078130000e+000) (13, 2.08570556640625000000e+001) (14, 3.61456718444824220000e+001) (15, 1.72099514007568360000e+001) (16, -2.33205394744873050000e+001) (17, 2.25318050384521480000e+000) (18, -2.16406917572021480000e+000) (19, -1.62068691253662110000e+001) (20, 2.31993746757507320000e+000) (21, 2.20923352241516110000e+000) (22, 5.68290042877197270000e+000) (23, 2.72940788269042970000e+001) (24, 2.22513217926025390000e+001) (25, 1.84504680633544920000e+001) (5, 2.19310741424560550000e+001) (6, 2.93219375610351560000e+001) (7, 2.26362228393554690000e+000) (8, 3.37689933776855470000e+001) (9, 2.23523664474487300000e+000) (10, 2.37906289100646970000e+000) (11, 2.06191673278808590000e+001) (12, 2.26234173774719240000e+000) (13, 2.08398551940917970000e+001) (14, 3.62464790344238280000e+001) (15, 1.71730861663818360000e+001) (16, -3.32529411315917970000e+001) (17, 2.22902393341064450000e+000) (18, 9.93702411651611330000e+000) (19, 7.09255123138427730000e+000) (20, 2.27647900581359860000e+000) (21, 2.28842353820800780000e+000) (22, 2.84275293350219730000e+000) (23, 2.89573783874511720000e+001) (24, 1.76342391967773440000e+001) (25, 1.26646699905395510000e+001) (5, 2.22140712738037110000e+001) (6, 1.01375937461853030000e+000) (7, 4.98237895965576170000e+000) (8, 9.59212779998779300000e-001) (9, 4.98112678527832030000e+000) (10, 5.11303615570068360000e+000) (11, 2.17905187606811520000e+000) (12, 5.07099962234497070000e+000) (13, 1.80488948822021480000e+001) (14, -5.51360130310058590000e+000) (15, 7.34901094436645510000e+000) (16, -2.77506580352783200000e+001) (17, 5.10202932357788090000e+000) (18, 1.29928436279296870000e+002) (19, 3.32394599914550780000e+001) (20, 5.12308645248413090000e+000) (21, 5.11381435394287110000e+000) (22, 3.71500167846679690000e+001) (23, 1.22625124454498290000e+000) (24, 2.04886364936828610000e+000) (25, 3.21134066581726070000e+000) (5, 1.85240669250488280000e+001) (6, 2.97489967346191410000e+001) (7, 1.86717975139617920000e+000) (8, 3.50029869079589840000e+001) (9, 1.98901784420013430000e+000) (10, 2.03300547599792480000e+000) (11, 2.83401870727539060000e+001) (12, 1.86634337902069090000e+000) (13, 1.97662124633789060000e+001) (14, 5.43953132629394530000e+001) (15, 1.70026931762695310000e+001) (16, -1.28811941146850590000e+001) (17, 1.94611656665802000000e+000) (18, 4.53099060058593750000e+000) (19, -2.66430625915527340000e+001) (20, 1.95398366451263430000e+000) (21, 2.02987957000732420000e+000) (22, 6.17319250106811520000e+000) (23, 2.87442646026611330000e+001) (24, 2.84222679138183590000e+001) (25, 1.86751041412353520000e+001) (5, 2.46775722503662110000e+001) (6, 2.70032615661621090000e+001) (7, 1.59510672092437740000e+000) (8, 2.96305961608886720000e+001) (9, 1.63322138786315920000e+000) (10, 1.59887361526489260000e+000) (11, 2.22169589996337890000e+001) (12, 1.67839539051055910000e+000) (13, 2.37394027709960940000e+001) (14, 4.63895111083984380000e+001) (15, 1.84530220031738280000e+001) (16, -3.19395751953125000000e+001) (17, 1.76069629192352290000e+000) (18, -5.14693164825439450000e+000) (19, -8.24991989135742190000e+000) (20, 1.60102987289428710000e+000) (21, 1.69572675228118900000e+000) (22, 9.44861602783203120000e+000) (23, 2.60384082794189450000e+001) (24, 2.16216659545898440000e+001) (25, 1.81209030151367190000e+001) (5, 3.92333335876464840000e+001) (6, -1.42747735977172850000e+000) (7, 1.70503578186035160000e+001) (8, 1.85349553823471070000e-001) (9, 1.69684925079345700000e+001) (10, 1.70895233154296880000e+001) (11, 1.24416148662567140000e+000) (12, 1.70050926208496090000e+001) (13, 2.62658691406250000000e+001) (14, 4.72040086984634400000e-001) (15, 9.13416862487792970000e+000) (16, 3.66316833496093750000e+001) (17, 1.71196384429931640000e+001) (18, 8.12876586914062500000e+001) (19, 2.39514942169189450000e+001) (20, 1.71286106109619140000e+001) (21, 1.70167369842529300000e+001) (22, 4.64169082641601560000e+001) (23, -1.13522565364837650000e+000) (24, 1.75080502033233640000e+000) (25, 6.28898668289184570000e+000) (5, 2.22758903503417970000e+001) (6, 2.93821868896484370000e+001) (7, 2.27672505378723140000e+000) (8, 3.36411781311035160000e+001) (9, 2.32096505165100100000e+000) (10, 2.22334289550781250000e+000) (11, 2.06986007690429690000e+001) (12, 2.19813513755798340000e+000) (13, 2.09271030426025390000e+001) (14, 3.60829925537109370000e+001) (15, 1.70240631103515630000e+001) (16, -1.24403467178344730000e+001) (17, 2.37500715255737300000e+000) (18, 4.48179817199707030000e+000) (19, 7.01695203781127930000e+000) (20, 2.18500399589538570000e+000) (21, 2.26425480842590330000e+000) (22, 4.52396631240844730000e+000) (23, 2.89128837585449220000e+001) (24, 1.76426830291748050000e+001) (25, 1.27015838623046870000e+001) (26, -1.27749996185302730000e+001) (27, -1.69548034667968750000e+001) (28, 3.11945629119873050000e+001) (29, 2.06092834472656250000e+001) (30, 3.10884571075439450000e+001) (31, 3.11226253509521480000e+001) (32, 1.55645812988281250000e+002) (33, -1.71538944244384770000e+001) (34, -1.34051055908203130000e+001) (35, -1.73470115661621090000e+001) (36, -1.03490600585937500000e+001) (37, 3.55607299804687500000e+001) (38, -6.39192237854003910000e+001) (39, -1.16349830627441410000e+001) (40, 2.06292457580566410000e+001) (41, -1.65343093872070310000e+001) (42, 1.20687794685363770000e+000) (26, 3.04956188201904300000e+001) (27, 3.07884902954101560000e+001) (28, -1.28186616897583010000e+001) (29, 3.98368787765502930000e+000) (30, -1.15469646453857420000e+001) (31, -1.59875135421752930000e+001) (32, -8.79314651489257810000e+001) (33, 3.11882934570312500000e+001) (34, 3.04858398437500000000e+001) (35, 3.14434070587158200000e+001) (36, 3.06023902893066410000e+001) (37, -2.75402050018310550000e+001) (38, 1.31104629516601560000e+002) (39, 2.77578735351562500000e+001) (40, 3.83869361877441410000e+000) (41, 3.01577167510986330000e+001) (42, 1.39630441665649410000e+001) (26, 3.64712486267089840000e+001) (27, 3.10529785156250000000e+001) (28, -1.09362068176269530000e+001) (29, 4.46254062652587890000e+000) (30, -1.08463935852050780000e+001) (31, -1.09498786926269530000e+001) (32, -7.20943374633789060000e+001) (33, 3.14250488281250000000e+001) (34, 3.66127700805664060000e+001) (35, 3.16234283447265630000e+001) (36, 3.09531345367431640000e+001) (37, -1.04098119735717770000e+001) (38, 1.56474502563476560000e+002) (39, 3.63018646240234380000e+001) (40, 4.40839862823486330000e+000) (41, 3.05694065093994140000e+001) (42, 1.83938865661621090000e+001) (26, -2.24493827819824220000e+001) (27, -1.59695777893066410000e+001) (28, 2.57071723937988280000e+001) (29, 2.32070713043212890000e+001) (30, 2.57460498809814450000e+001) (31, 2.86515274047851560000e+001) (32, 9.50619735717773440000e+001) (33, -1.63530406951904300000e+001) (34, -1.03256196975708010000e+001) (35, -1.62660770416259770000e+001) (36, -9.22471427917480470000e+000) (37, 4.27814826965332030000e+001) (38, -1.26365669250488280000e+002) (39, -1.00274410247802730000e+001) (40, 2.28023281097412110000e+001) (41, -1.57604141235351560000e+001) (42, 1.60926985740661620000e+000) (26, -7.37414598464965820000e+000) (27, -1.06489667892456050000e+001) (28, 3.63139343261718750000e+001) (29, 3.09546928405761720000e+001) (30, 3.62496376037597660000e+001) (31, 5.02375450134277340000e+001) (32, 1.55862274169921870000e+002) (33, -1.05977802276611330000e+001) (34, -7.30072736740112300000e+000) (35, -1.10377969741821290000e+001) (36, -1.04911231994628910000e+001) (37, 3.99831237792968750000e+001) (38, -5.10976905822753910000e+001) (39, -7.15902471542358400000e+000) (40, 3.10893173217773440000e+001) (41, -1.00904273986816410000e+001) (42, 1.83250880241394040000e+000) (26, -1.07201328277587890000e+001) (27, -1.74281158447265620000e+001) (28, 2.64568710327148440000e+001) (29, 2.60698833465576170000e+001) (30, 2.62680244445800780000e+001) (31, 2.62702102661132810000e+001) (32, 1.33417663574218750000e+002) (33, -1.77199668884277340000e+001) (34, -9.36763477325439450000e+000) (35, -1.78008956909179690000e+001) (36, -1.73431015014648440000e+001) (37, 4.51436119079589840000e+001) (38, -8.05087738037109380000e+001) (39, -9.15931129455566410000e+000) (40, 2.58530178070068360000e+001) (41, -1.70563793182373050000e+001) (42, 1.85692489147186280000e+000) (26, -1.47051181793212890000e+001) (27, -1.76555557250976560000e+001) (28, 3.48130912780761720000e+001) (29, 2.06496791839599610000e+001) (30, 3.47435874938964840000e+001) (31, 3.47889251708984380000e+001) (32, 7.91918106079101560000e+001) (33, -1.88993129730224610000e+001) (34, -1.46902933120727540000e+001) (35, -1.92603282928466800000e+001) (36, -1.85226554870605470000e+001) (37, -3.92063677310943600000e-001) (38, -1.58700668334960940000e+002) (39, -1.46395130157470700000e+001) (40, 2.00844173431396480000e+001) (41, -1.85448646545410160000e+001) (42, 1.72541582584381100000e+000) (26, -1.06423864364624020000e+001) (27, -8.41450405120849610000e+000) (28, 4.21913261413574220000e+001) (29, 1.25527534484863280000e+001) (30, 4.20075225830078130000e+001) (31, 4.20357170104980470000e+001) (32, 1.62743148803710940000e+002) (33, -8.47978401184082030000e+000) (34, -9.25534725189208980000e+000) (35, -8.66037845611572270000e+000) (36, -8.41939163208007810000e+000) (37, 4.69075126647949220000e+001) (38, -9.33814086914062500000e+001) (39, -9.17653846740722660000e+000) (40, 1.22643299102783200000e+001) (41, -8.32611274719238280000e+000) (42, 9.49592971801757810000e+000) (26, -1.35829973220825200000e+001) (27, -1.05827159881591800000e+001) (28, 3.55713233947753910000e+001) (29, 3.47080955505371090000e+001) (30, 3.55535774230957030000e+001) (31, 3.65414733886718750000e+001) (32, 1.68394042968750000000e+002) (33, -1.12095584869384770000e+001) (34, -1.36020908355712890000e+001) (35, -1.09827470779418950000e+001) (36, -1.10598144531250000000e+001) (37, 2.73345432281494140000e+001) (38, -3.98851623535156250000e+001) (39, -1.34603338241577150000e+001) (40, 3.47042312622070310000e+001) (41, -1.05136899948120120000e+001) (42, 1.57450675964355470000e+000) (26, -1.13777580261230470000e+001) (27, -7.51778411865234370000e+000) (28, 2.87438869476318360000e+001) (29, 1.90520362854003910000e+001) (30, 2.27587280273437500000e+001) (31, 2.67820377349853520000e+001) (32, 2.03126037597656250000e+002) (33, -7.47942972183227540000e+000) (34, -1.09214992523193360000e+001) (35, -7.59823417663574220000e+000) (36, -7.31201601028442380000e+000) (37, 6.92639617919921880000e+001) (38, -5.01093597412109380000e+001) (39, -1.02765092849731450000e+001) (40, 1.89990806579589840000e+001) (41, -7.32479715347290040000e+000) (42, 3.04882621765136720000e+000) (26, -5.18871545791625980000e+000) (27, -1.58302679061889650000e+001) (28, 2.90941181182861330000e+001) (29, 2.06946945190429690000e+001) (30, 2.90320320129394530000e+001) (31, 3.63859252929687500000e+001) (32, 1.41284210205078120000e+002) (33, -1.62217845916748050000e+001) (34, -5.16950893402099610000e+000) (35, -1.64355659484863280000e+001) (36, -1.57119674682617190000e+001) (37, 5.24678916931152340000e+001) (38, -7.94994659423828120000e+001) (39, -4.97223949432373050000e+000) (40, 2.05871047973632810000e+001) (41, -1.55040006637573240000e+001) (42, 1.82816243171691890000e+000) (26, -9.19173526763916020000e+000) (27, -1.61074600219726560000e+001) (28, 3.10359344482421880000e+001) (29, 2.86490592956542970000e+001) (30, 3.05925178527832030000e+001) (31, 3.87165527343750000000e+001) (32, 1.88021392822265620000e+002) (33, -9.12763214111328120000e+000) (34, -9.21860408782958980000e+000) (35, -1.65220108032226560000e+001) (36, -8.92158508300781250000e+000) (37, 4.75296516418457030000e+001) (38, -2.33016910552978520000e+001) (39, -9.06782341003417970000e+000) (40, 2.58181934356689450000e+001) (41, -1.58530082702636720000e+001) (42, 1.86121392250061040000e+000) (43, -1.44666271972656250000e+003) (44, 1.49995471191406250000e+003) (45, 1.50000000000000000000e+003) (46, -1.35932128906250000000e+003) (47, -1.49500366210937500000e+003) (48, -1.49436523437500000000e+003) (49, -1.29578076171875000000e+003) (50, -1.49482067871093750000e+003) (51, -1.49450207519531250000e+003) (52, -1.49303381347656250000e+003) (53, -1.43341564941406250000e+003) (54, -1.49521032714843750000e+003) (55, 1.49855224609375000000e+003) (43, -1.47719836425781250000e+003) (44, 1.50000000000000000000e+003) (45, 1.50000000000000000000e+003) (46, -1.27476770019531250000e+003) (47, -1.49610876464843750000e+003) (48, -1.48681970214843750000e+003) (49, -1.36501477050781250000e+003) (50, -1.48973901367187500000e+003) (51, -1.49567993164062500000e+003) (52, -1.49629028320312500000e+003) (53, -1.46073828125000000000e+003) (54, -1.49626440429687500000e+003) (55, 1.49912023925781250000e+003) (43, -1.47187170410156250000e+003) (44, 1.50000000000000000000e+003) (45, 1.50000000000000000000e+003) (46, -1.37041918945312500000e+003) (47, -1.49014160156250000000e+003) (48, -1.49456433105468750000e+003) (49, -1.26300524902343750000e+003) (50, -1.47213793945312500000e+003) (51, -1.47207690429687500000e+003) (52, -1.49031970214843750000e+003) (53, -1.47195434570312500000e+003) (54, -1.49298364257812500000e+003) (55, 1.49929602050781250000e+003) (43, -1.48063659667968750000e+003) (44, 1.47794799804687500000e+003) (45, 1.49714648437500000000e+003) (46, -1.25422314453125000000e+003) (47, -1.49631494140625000000e+003) (48, -1.48494812011718750000e+003) (49, -1.41739086914062500000e+003) (50, -1.47897045898437500000e+003) (51, -1.49299475097656250000e+003) (52, -1.49577600097656250000e+003) (53, -1.47882971191406250000e+003) (54, -1.49617138671875000000e+003) (55, 1.50000000000000000000e+003) 
